-1.791801146723564742e+01,1.773470669273133282e+01,4.106666011573590680e+01,-4.373592020709023309e+00,-2.241375907057652483e+01,1.172476739644930044e+00,1.098957969133131263e+00,2.898964934015149453e+01,1.794698106416573680e+01,2.003208763829604777e+01,-3.947445717458484182e+01,-7.499333801297715096e-01,-9.867318316831363845e+00,9.988670667579015117e+00,-2.044264668295833332e+01,3.784035120172544620e+00,-1.149439134626281422e+01,2.594325956311368842e+01,-1.736718922107419516e+01,1.631311150907718144e+01,-7.983836293459052325e-01,1.559066912466505705e+01,-8.931387340676739228e+00,7.149725122656333198e+00,-1.126618650325561255e+01
-1.339984892663432703e+01,4.090090658802016499e+00,4.241523224933112601e+01,3.673126461769289364e+01,-2.471552456954579924e+01,6.508992657630420453e+00,-8.955899446464234970e+00,3.086332243119696628e+01,1.920218294068636755e+00,1.086835218490208455e+01,-3.429998787092504386e+01,5.857976879066173481e+00,8.543413104017064441e+00,2.331375890542346241e+01,-8.408792603500867102e+00,1.457432753336826714e+01,-6.733653542506813139e+00,2.524947675327653585e+01,-1.352333743068729000e+01,-1.750994953451306735e+00,7.362855372076947624e+00,1.049615901828646791e+01,1.052055604159538582e+01,3.053099473587707280e+00,-2.258755063384042217e+01
-1.948125884268057106e+01,8.600234859893404860e+00,5.963261742538732335e+01,2.769702171795272605e+01,-2.680695963370615686e+01,1.192193533714894293e+01,-9.517511720748021986e+00,2.409437001487856023e+01,9.361890979005109414e-02,1.122868429726216633e+01,6.756330363756672952e+00,-9.101180783405483865e+00,1.821166876853761663e+00,1.865758551806726828e+01,4.175986283572377111e+00,9.035893894333780096e+00,-1.104259484832078897e+01,1.766646451126750605e+01,-1.605579734278078874e+01,-2.847783060323783477e+00,-1.335937151796589539e+01,3.664636722439134520e+00,1.758403242190500038e+01,-3.002998411361462949e+00,-2.087798209819924722e+01
-1.763017333972919687e+01,2.933798503371471966e+00,9.593642628672714778e+00,2.095411107805461981e+01,-1.518876642323489357e+01,-1.021485275321836639e+00,-1.035051187542264195e+01,4.453944331741910290e+00,-1.465644496634065241e+01,1.819401791334998686e+00,3.399377595943883001e+00,-2.086031370394343654e+01,-9.017098633782531181e+00,1.229083538407673792e+01,6.062017195127710423e+00,-1.497274639862424150e+00,-1.777493950142406121e+01,7.504434710452018820e+00,-1.176168667992925698e+01,-1.157893919359005430e+01,5.729914056522657617e+00,-1.423269921794210857e+00,5.179845071696484560e+00,-1.214704568955962039e+01,-3.143805193924990249e+00
-1.674363390447803468e+01,-4.026160169743598694e+00,1.265787597279870269e+01,4.717542106065252483e+01,-2.333275795900460636e+01,8.078695530057139251e+00,-8.586276474551850058e+00,1.693642737704222867e+01,-1.622522772335331709e+01,2.606045204029120210e+00,2.021844237443723991e+00,-1.857436319321014651e+01,3.361187338251200085e+00,2.687459379344216615e+01,6.924636211467030122e+00,7.619528497446198756e+00,-1.885609462279403914e+01,1.548268660311047640e+01,-1.500847253299178696e+01,-1.139941983577190143e+01,1.778832457606653250e+01,5.179784816718008500e+00,2.398183415790124684e+01,-6.590060459092955014e+00,-1.592183654056708342e+01
-2.523927428694292274e+01,-6.606598037002702206e+00,-7.277490202607526104e-01,3.836339916511779080e+01,-2.259461367739938709e+01,8.364294621110701655e+00,-1.357869425070296510e+00,-4.202181658158872790e-01,-2.146586032159776281e+01,1.443059522719035981e-01,1.872780007619349263e+01,-2.823785552081001526e+01,-5.545222023969962777e+00,1.295582837488099237e+01,1.533598228301934441e+01,4.134730666426488455e+00,-1.806391790661962915e+01,-3.223731107175116239e-01,-2.149700639326866280e+01,-1.537357834574446258e+01,1.248012790703167596e+01,-5.533664554834896165e+00,3.020684428750601569e+01,-2.469631456061061314e+01,-1.213355530810815885e+01
-3.009366019275552162e+01,-9.040981009464893248e+00,1.496194401265934104e+01,2.098572621517218906e+01,-2.775261321992070052e+01,2.193766103054425098e+00,-2.477776387457277796e+00,7.489013218318208764e+00,-1.154047208373071065e+01,4.471592738824487157e+00,8.413884632978009037e+00,-1.880990176282095661e+01,2.599060621371706570e-01,4.876787360374520652e+00,-4.872927715369170243e-01,-7.825757685559842081e-01,-1.100999903656032686e+01,3.972030657266161668e+00,-3.183068926900768147e+01,-1.535123129389919017e+00,-5.991216044124904272e+00,3.328972889510549038e+00,1.953015310139780070e+01,-9.371271377306667816e+00,-3.235511476862396307e+01
-2.301462971163771343e+01,5.356687151184456042e+00,2.540796507817953298e+01,2.126400975081352485e+01,-1.290477060688068889e+01,1.252730773475101778e+01,2.143944830853537553e+01,6.369630586966732011e+00,-5.482814300980832556e+00,-5.973116453278078275e+00,4.351827398367078992e+00,-2.025652694555937217e+01,-1.315151933147998697e+01,9.271510564522762010e+00,2.026628542606980776e-01,3.260706322367302068e+00,-1.741626326306893446e+01,1.216080053781813497e+01,-1.891114848500433610e+01,-6.103431301045708857e+00,1.669129299189508941e+01,-4.292232907611436055e+00,2.235998285466579460e+01,-1.597239719881595121e+01,1.318242159575493488e+01
4.125116435878053878e+00,1.340011772638655563e+00,2.576339762113937581e+01,6.646359319907785945e+00,4.864971977489150667e+00,1.254351878670130871e+00,2.247786379028767101e+01,1.069983125222606013e+01,-1.218738644216307776e+01,-2.269010992577476671e+01,2.896425193794745567e+01,-1.613971820943318036e+01,1.056107385526169562e+00,-2.417640399136197971e+01,1.041128182709689298e+01,-1.383735404126849478e+00,2.247224941123373121e+00,-3.601274805410505930e-01,-2.455582999082872675e+01,1.011421828653547195e+01,1.854014819160725525e+00,-4.706946694791784402e+00,1.163101025542212064e+01,1.927402764333117702e+01,-8.961163796131282666e+00
-1.559401366560643609e+01,2.031610395182428519e+01,-7.160478975020533321e-01,2.281892203811178632e+01,2.130834606848761936e+01,-8.573624381448155418e+00,8.248551103329699430e+00,-5.858721577374452760e-01,3.592014456739703210e+00,-7.682397248767698805e+00,4.473073596210186964e-01,-1.820620749149325945e+01,-1.774990531836428431e+01,-1.218462058530433012e+01,2.971465430949890685e+00,-8.230791923618374639e+00,-2.314535825619137555e+01,-3.729291687046487058e-01,-1.349168699523773896e+01,-8.330237396554926121e+00,1.627483006894868822e+01,-2.158623737059949921e+00,-5.031465453840408664e+00,-8.040067648051199001e+00,1.466878685992953990e+01
-1.990591860576344985e+01,2.140726641004080832e+01,-1.358980608984188931e+00,1.810205498648146971e+01,2.079837024744309915e+01,-1.146834463106045199e+01,9.751194771285703666e+00,-9.544320787856053201e-01,-6.084519194187589797e+00,-5.169181245268612557e+00,7.769029713362129108e+00,-7.524427690230657717e+00,-1.216394314819668310e+01,-6.817108706692430964e+00,-9.281148496580906126e+00,-6.991207988166713960e+00,-2.242652308719285159e+01,3.726879535405867028e+00,-1.969445787167494544e+01,1.589038642296420001e+00,1.168787816582228878e+01,1.652148861732052110e+00,-5.382145612396221246e+00,-1.084547000093345703e+00,1.004208905557088727e+01
-2.533792040788529576e+01,2.629537282948800225e+01,-2.286933457329602959e+01,7.235504139252656230e+00,2.440403178026697262e+01,-2.057543123771824156e+01,-1.943523326466809920e+01,-6.326372239370956052e+00,-6.962267145715287375e-01,-4.080948433593620805e+00,1.294140774898990287e+01,-2.486726578208273963e+01,-2.355261895643366898e+01,-2.205799604641797274e+01,1.087029853900968668e+01,-2.180570058644301312e+01,-2.791960244733034102e+01,-1.274637286798043334e+01,-1.236511204950182297e+01,-7.226249307438599168e+00,-1.518378704422779180e+01,-4.452715524984866668e+00,-6.771077126895248988e+00,-1.482017123191680774e+01,-9.152117336599195241e+00
-8.138665600632883468e+00,-2.744191006188390958e+00,-2.317752948618929221e+00,3.668157143758887173e+01,-1.388414057101747145e+00,-9.019810419761521425e-01,6.849415778489044371e+00,7.826369469535297441e+00,-1.193237446563752790e+01,-1.220730098190199397e+00,2.741824783057539960e+00,-2.187420910332741553e+00,-4.513663510938676460e+00,-7.196919867781858215e+00,1.070748479602133507e+01,-1.934590934840359822e+00,-1.316911564740520113e+01,-2.678294189408600534e+00,-1.054208906856537276e+01,-5.728256411676737159e+00,2.193056173154524302e+01,6.086813744193395603e-01,7.350462764311343378e+00,-8.537457129585698468e+00,-3.453709353242676627e+01
-6.448148087013361618e+00,1.832138367201661566e+01,-5.527594971740724361e+01,4.094422352790434161e+01,2.593166163814591485e+01,-1.937842713597574829e+01,-2.692524354908698214e+01,-5.032931921012008258e-01,-1.211267783249949659e+01,-2.405154911357909597e+00,-2.836459662712648111e+01,-2.693470406361880265e+01,-2.139777048595959741e+01,-5.260156462246976083e+00,1.989612487544928499e+01,-8.666826862458290037e+00,-2.658139212553134456e+01,-2.874294034786284424e+00,3.610630820145579456e-01,-2.234035194396669155e+01,2.510161332566393000e+01,-3.200558291797025667e+00,-7.886649550007388321e+00,-2.119119496639281408e+01,1.482312802952731978e+01
-1.142250039166311026e+01,1.121142900942339082e+01,-5.135320345108352313e+01,2.729045753360577464e+01,2.559137876056928107e+01,-1.379362297955129257e+01,-3.188217496654333072e+00,-1.284678053632996431e+01,-2.549610337319820985e+01,1.743252594349999018e+00,-9.357778872046345953e+00,7.840557296223555461e+00,-7.592469372427291141e+00,2.282544607458651065e+00,-2.096022700094450908e+00,-6.238380354213695966e+00,-1.563245865545841795e+01,-7.527696685661087184e-01,-1.393892226169589854e+01,-2.103562854408266958e+01,2.387135281220576033e+01,-1.087385999178876572e+00,-8.316296969915619286e+00,-1.455071503646866482e+01,3.751657165583937470e+00
-8.646742704975878269e+00,8.824800264572120412e+00,-4.484238329977706883e+01,3.318818491355397526e+01,1.800146183719389370e+01,-2.067894012214395616e+01,-3.183224696015376054e+00,-1.286122139531190633e+01,-2.811755987934561674e+01,-4.287922483184424816e-01,-2.600173169377733728e+01,-3.649878679134762383e+00,-1.840092060935380047e+01,1.366520112772078022e-01,9.789259830581507060e+00,-5.339085909392395024e+00,-1.796764650389977547e+01,-7.868745700211541738e+00,-9.529049501341644302e+00,-1.912449897356666995e+01,4.090153974033849948e+01,-8.189051650827140705e+00,-6.456356947464851004e+00,-1.903646764275416814e+01,1.875289848268925397e+01
-3.891680395027852679e+00,2.561288613571842010e+00,-5.293393572161729566e+01,1.609717438648164389e+01,1.765773545798034760e+01,-1.608056807363531604e+01,1.904134379145078215e+00,-1.219356931778923503e+01,-1.726768574769060294e+01,-5.198910557804845567e+00,-5.158687250256960510e+00,-1.296921772738506995e+01,-1.459508033952310413e+01,-2.563775272134472538e-01,9.287043906527667758e+00,-6.144999201139740741e+00,-1.581485082218657823e+01,-5.650125852342993582e+00,-2.229229092058021777e+00,-5.915109608508370975e+00,3.391244817820916779e+01,-5.447657795204827735e+00,-4.223353461572781353e-01,-1.447316916189082825e+01,1.472795586776318011e+01
-1.172432716520532159e+00,3.447614581902894715e-01,-1.767334787822574782e+01,1.507347316130072556e+01,3.661955150897771905e+00,-4.748854744512845727e+00,9.801496637718573268e+00,-1.809771995272676071e+00,-1.406188854913001585e+01,-1.367949230585594922e+00,-1.881079002564961744e+00,8.423246105571877695e-01,-3.251722060736165432e+00,6.004195207806597434e-01,5.201076410456640708e+00,1.206407620105945933e+00,-7.914956949920820328e+00,-1.225698709135979225e+00,-9.041334065632062433e+00,-1.110834274578043734e+00,2.242667158955676143e+01,1.198465407765705981e+00,3.057143036278893167e+00,-4.998945405366033157e+00,-2.848846348680739826e+00
-3.767578279987256362e+00,-8.141773108779346568e-01,-5.840669989837957488e+00,7.281380492515533653e+00,6.315408458090542965e+00,3.584789424508865729e-01,1.552320182059814258e+01,-1.629315498194322087e+00,-8.290101609388070614e+00,1.608617528316453216e+00,6.744168290851519032e+00,1.448407172747342919e+01,3.746441290905516475e+00,9.717785656158376417e-01,-4.993417892708092332e+00,2.446585688987970908e+00,3.231114701805144929e+00,2.508095845716761474e+00,-8.976508905965959073e+00,6.976624096029622635e+00,1.322647231892325159e+01,3.539543573952464772e+00,2.772158116567254194e+00,1.595553331162105293e+00,-7.401730748887832334e+00
-6.545944272540893394e-01,-1.516864125141161423e+01,-1.980590621568443765e+01,1.503514593326804594e+01,-3.725023480179374680e-01,6.406954315101863529e+00,2.888900392293187025e+01,-1.686054868186464550e-01,-1.480995927071641383e+01,-3.436937725580745173e+00,2.443305589505044395e+00,1.886467571499688489e+01,8.037967781552092461e+00,9.326782195774214745e-01,-5.409159889492123341e+00,5.608111199074407693e+00,1.201687006742544028e+00,1.809400073027768618e+00,-5.779018776185791850e+00,3.473593904453259995e+00,3.303752927606897316e+01,2.357053173601190821e+00,8.262215718647086149e+00,-5.825113057851961651e-01,-8.750063012619059277e-01
-2.329594933579482330e+01,8.204728166187470251e+00,-6.908551352086325537e+00,-7.266542763221630175e+00,-6.959448515843797978e+00,4.712747860331412575e+00,1.362364354041333669e+01,-2.622072320236650711e+00,4.900974564786689136e+00,2.785865204609952350e+00,-9.488821530256236869e+00,-8.455818532097522322e+00,-1.480178387917419158e+01,1.193222594654130297e+01,-1.688415862528501421e+01,-1.594940661378133340e-01,-1.461001699768492834e+01,9.854124201740601663e+00,-1.125697935489931645e+01,-8.592020076671231799e-01,9.237758645893517695e+00,-8.491048869980112324e-01,2.288754555429875825e+00,-1.089513881942382945e+01,1.986542453705586908e+01
-2.302437960317715593e+01,1.113415492422040076e+00,-9.396018929201076730e+00,8.064118162561715764e+00,-2.535133970718284946e+00,1.943180764047074405e+00,-1.701668310059131217e+00,-9.166036394322221170e+00,-1.347585194734943137e+01,1.931075848341466727e+00,2.228557186354148101e+01,2.838742905967669650e+00,1.874089006845167882e+00,1.127574321589358775e+01,-7.850155457756381239e+00,-2.685276299799985278e+00,-5.702754524945280679e+00,4.404253266810221890e-01,-1.404689379560107376e+01,-1.343070902046469683e+01,-1.265637950148526336e+01,-2.882225122374355131e+00,1.130786984128260642e+01,-4.571291285299393437e+00,-3.158519595108085110e+00
-9.539406929029162541e+00,-4.664310365312370088e+00,-1.616161018404354621e+01,2.450471262058519883e+01,-7.047258917307039461e+00,-4.120514458537715363e+00,-7.358897432833806818e+00,1.405747418436478213e+00,-1.395683568802304819e+01,-4.090944015707405512e+00,8.880798772863863988e+00,-1.920669691418059699e+01,4.843940236477946304e-02,6.526552135612305960e+00,1.000856515541441283e+01,-2.037473907049208055e+00,-1.148119073417560898e+01,1.811216041253002951e+00,-9.873605226267992307e+00,-9.020710184901075124e+00,1.591207794897612615e+01,1.074952586768021190e+00,1.286122680988839839e+01,-3.972200769109874408e+00,-6.048528977636008719e+00
-3.252885335200458528e+00,-7.225093294384939746e+00,-6.045378477706134790e-01,3.678429174244460853e+01,-1.126145875258899665e+01,8.329789990217131290e+00,4.463263942274622309e-01,8.762851213093300728e+00,-6.701334679767089852e+00,-2.994522167714929406e+00,-1.988223209685184845e+00,-1.502502796680962405e+01,3.259065048065988179e+00,1.662015413689027810e+01,4.023459096897417986e+00,6.155945115913601384e+00,-9.522216369784402445e+00,9.150607938677282505e+00,-5.658992778588666894e+00,-9.329192469321663239e+00,2.382470998598805423e+01,3.014739509645849136e+00,2.057249120910864448e+01,-7.168548961741646686e+00,-3.327075754364580362e+00
-1.016406354658124123e+01,-6.150584154581665075e+00,-1.966476225012767287e+01,2.624192878043691834e+01,-3.600041017259117293e+00,3.896901461843334857e+00,4.781094686976790631e-01,-5.206882904697459402e+00,-1.529381478399896643e+01,-4.352969781594139498e+00,1.763540757276300752e+01,-9.202176695677069418e+00,2.474744111045329653e+00,1.213758357606116611e+01,1.885954077808326801e+00,1.338354401597818155e+00,-1.021441456151785765e+01,3.073824620562086718e+00,-1.037049206666798895e+01,-9.100981675907055646e+00,1.850716518810138567e+01,-7.867002147861891226e-01,1.665813859334598490e+01,-1.088450814023407887e+01,-4.093954475522115111e+00
-1.603070963750209899e+01,1.484553141659632125e+01,-2.886075754547363559e+01,8.394154511450845346e-01,1.293232957641537340e+01,-1.210262852017348756e+01,-9.099741146877418529e+00,-1.263570235979790013e+01,-7.280833998310918709e+00,-4.642014448309963903e+00,-4.782426385613053554e+00,-2.704757351679410604e+01,-2.678575248180234070e+01,-2.794840383227843894e+00,-2.947435707413184058e+00,-1.579316108109650152e+01,-2.498679597191544133e+01,-4.677811172073979007e-01,-6.526660332722327595e+00,-8.104508104601434226e+00,1.397597244140740180e+01,4.476915681040422590e-01,-1.340468848559558879e+01,-1.319901707516170397e+01,1.908302039417369755e+01
-3.315031776746726422e+01,3.085772971039295598e+01,-2.417006370553120576e+01,-7.633945917565453598e+00,2.097059049241661199e+01,-1.939742193814102578e+01,1.160917339990242381e+00,-1.602454999037942684e+01,-2.028822224259878571e+00,3.745522818198642856e+00,2.349887277755793846e+01,-1.743159875014543658e+01,-3.153413681126717805e+01,-1.392689593716761287e+01,-1.389005568936220492e+01,-2.611977837724338869e+01,-2.495865602210785639e+01,-5.371171891986626257e+00,-3.108686379773719821e+01,1.527798795166286716e+01,3.244944730400710853e+00,1.221804002233860320e+00,-5.968604985291344756e-01,-8.107854781223869267e+00,-1.518647256790323606e-02
-1.515461975742426404e+01,3.632749205924763913e+01,-7.559947370790413679e+00,1.088771587112286099e+01,3.430528436387059799e+01,-1.090544403656842753e+01,-1.175024035194222716e+00,-6.947369806071034937e+00,-8.439252804074484082e-01,-1.180503583500118836e+01,1.038559938240173075e+01,-5.870288438785114415e+00,-2.387575309020028058e+01,-1.090670632982088684e+01,-1.109639263194755543e+01,-1.504988419666204180e+01,-1.476439420635856870e+01,3.345597899209739046e-01,-1.548255365846882547e+01,-2.635881009873935810e+00,-1.456396255422159336e-01,-5.900994305783021865e+00,-1.528995179262658821e+00,-8.445466022873509004e-01,1.706074697289705711e+01
-2.214758946773709880e+01,2.706791662704797474e+01,9.803908978442438027e+00,7.635534769287931844e+00,1.680618144726823360e+01,1.705553057602584577e+00,1.384616562365209269e+01,-1.486355956060298356e+00,8.044346901676526329e+00,-6.767184953046210261e+00,1.265626635952813928e+01,8.731346385924450004e+00,-1.323399220022226253e+01,-1.253122302701083157e+00,-2.406648565478661084e+01,-6.581279474272045071e+00,-2.408058721053587981e+00,9.332422452808483371e+00,-2.173257387889218961e+01,9.532980171877024844e+00,-4.087574599403289710e+00,1.854218462701500703e-01,1.178965031278185904e+01,1.075493865938955196e+01,3.089282077271166216e+00
-1.652831647518559777e+01,8.592916993395640191e+00,-1.332551438172609437e+01,1.374081719191345563e+01,1.257389036284371153e+00,-8.115304912117972336e+00,1.395414202499023482e+00,-7.144324302343764366e+00,-3.203741416515023310e+00,-8.489324764834140780e+00,8.387470608361965674e+00,-1.834342389095122172e+01,-1.341397966335860659e+01,-5.000733305143687524e+00,-7.909876717906568544e+00,-1.233440519622550724e+01,-1.238023874786655654e+01,-3.898977558597969573e+00,-1.625755005392199593e+01,2.045300811099304727e+00,8.318816935593229545e+00,-5.504540088631022954e+00,1.649531756170607011e+01,-9.844276869915653094e+00,6.212403378399660170e+00
-1.831173437061525178e+01,6.855880419135883308e+00,-5.826093035469641634e+00,1.502539112915134822e+01,1.163406020887448555e+01,-1.074136590107457323e+01,1.254633646055406260e+01,2.353633524457329873e+00,-1.888584699434386616e-01,-1.559765962885665225e+01,5.359888574017248608e+00,-1.494857905862367220e+00,-9.407406682359869876e+00,-4.820081081255549904e+00,-2.390373669562951164e+01,-5.832840827331289724e+00,-1.739939304459187497e+01,7.064062227295975660e+00,-1.874787941541315917e+01,4.498673096735506860e+00,1.290519649316842710e+01,2.167741556322475116e+00,6.572964886221054570e+00,-2.001672469372791363e-01,7.800252687125554196e+00
-2.009500350767182653e+01,8.730508237083187240e+00,-1.188531920244903084e+01,1.611878962029485862e+01,6.775403308066750618e+00,-7.984282228961539829e+00,-1.001182321639178641e+00,-1.182868950802962837e+00,-4.054328976494194769e+00,-5.941976436646415394e+00,-6.912869147715634988e+00,1.024117782834600021e+01,-8.359310061508306688e+00,3.045142524185413535e+00,-2.426678833417974346e+01,-5.789302519280414394e+00,-1.211835039438954631e+01,3.386067560011313482e+00,-1.490692844079223711e+01,-5.992455941530102415e+00,3.930770077110360639e+00,-1.276779285318807133e+00,1.072360402181242200e+01,-7.983855734210072441e+00,-6.774179208388299678e+00
-1.780977530497176531e+01,1.472217055900663674e+01,-1.049784743147078991e+01,1.527561474882478620e+01,2.559085644820954908e+00,-1.410191052870210093e+01,-6.143078219317342992e+00,1.581742485057407999e+00,4.437718403018396707e+00,-7.813737946681105662e+00,-1.441860697706253969e-01,-1.594212444409861540e+01,-1.550028105167153569e+01,-1.087517300676309873e+01,1.899777301028011678e+00,-1.112060810540553923e+01,-1.832364099318163042e+01,-2.742344780953806627e+00,-5.740102968442121423e+00,6.595181499766265887e+00,5.912821995382700813e+00,3.073623597530843465e+00,5.549004539154441140e+00,-4.375690725458076358e+00,-1.608696416439505938e+01
-8.630111397191411626e+00,1.022068913000074275e+01,1.209520195743800208e+01,3.218120579896650213e+01,6.562167421411815305e+00,4.550160850093706522e+00,5.628319229323083261e-01,1.226273164518201497e+01,1.903972431498960916e+01,-2.231739765127121444e+01,-3.377899293233708189e+00,-1.155675519747296143e+01,-2.956018290853339447e+00,-3.788736424759009846e+00,-9.144589393473257388e+00,-1.258672453457087448e+00,-9.097856843845457675e+00,7.559044528311058109e+00,-8.319032507230977869e-01,-4.431187655903681133e-01,5.795953580611791445e+00,1.017121484983141810e+00,1.985776290195359195e+01,3.312394602557078738e+00,-5.299692874842309109e+00
-4.163626981087372059e+00,8.642727467249157414e+00,3.592720977918319392e+01,1.295803669115080936e+01,-6.444213939084217913e+00,4.497099848737400762e+00,-4.626109775311125105e+00,2.065505895392354674e+01,1.315945110431625409e+01,-1.577760046046718045e+00,-1.006180310818564294e+01,-1.124583070501304860e+01,-6.346171162743418748e+00,-1.508801609200297200e+01,1.127102694186488030e+01,3.681163252396145946e+00,-8.672337786339054944e+00,4.798178090840728771e+00,-3.357792874210576262e+00,1.072844772535406221e+00,-1.310327200695040339e+01,1.525665960722406567e+00,1.034338034907185955e-01,-1.780269803905309756e+00,-1.595435343280052898e+01
-2.508844683847811785e-01,3.321624754786166811e+00,2.629977982344799514e+01,3.760596326030319858e+01,5.260228694252178094e+00,8.830142243279576419e+00,1.161310539335532432e+01,1.810220544327786740e+01,1.448221472930618248e+01,-2.437606865362560882e+01,-6.304447498896864843e+00,-1.274037367953615352e+01,2.999185445955452334e+00,-4.216979032173949093e+00,-2.313109564023727138e+00,2.125504417841850735e+00,-5.811926809004063443e+00,1.206579331989530779e+01,-5.222311372872241009e+00,-7.115965020577399436e-01,2.309544014179052240e+01,6.377428519489884984e+00,2.041079137129110066e+01,9.908069956443831927e+00,-2.954367513992158134e+00
-1.595808470321188111e+01,1.772580958590847899e+01,1.607488907098494124e+01,1.171830617057955770e+01,6.288711530700164865e+00,-1.196888332398041754e+01,-1.560542135736030822e+01,1.013636868150692649e+01,6.234423783007532194e+00,-8.672233240454984227e+00,5.348754515160479173e+00,-2.303674125515789228e+01,-7.447454643755475168e+00,-1.864792867522812259e+01,7.979039776800353145e+00,-1.449152932531804439e+01,-1.327755016859563497e+01,-1.765432332408020111e+00,-9.341411176677150152e+00,5.970537446657251834e+00,-8.498630321589672576e+00,2.318883353690094129e+00,-9.635199456767891135e-01,4.346189674716504747e+00,-5.947102059816053554e+00
-1.177682339345868662e-01,-3.111908280201548527e-01,1.391218663191486549e+01,2.630633778237758236e+01,2.476694819369018863e-01,3.092071708093730109e+00,8.858018161414818792e+00,1.446502950325915293e+01,7.780026514644355906e+00,-1.624368793620368479e+01,5.613144676385900533e-01,-1.410260492965517720e+01,2.579984474033387709e+00,-5.031405870224712196e+00,7.022877134057227799e+00,2.374087704334008730e+00,-4.406058862332752568e+00,4.898372602011455967e+00,-3.268726008297675900e+00,5.249809137197059883e+00,2.158916875439998506e+01,4.048773000442879244e+00,1.940571787114552649e+01,5.796841400324112215e+00,-8.870838063710158039e+00
-3.127752829483154695e+00,-8.777145959149475374e+00,-3.705999169339709187e+00,1.222719085326426836e+01,-5.322429100279626901e+00,-1.340994742894473957e+00,6.487698038402172962e+00,7.784378013682022868e+00,-1.024519757786101160e+01,-4.789529679905724535e+00,2.597923500898105531e-01,-1.672726297651090377e+00,5.672258325397531387e+00,4.156145086216420204e+00,-1.997948336218575927e+00,1.506332295727392578e+00,-2.094235644561052823e+00,3.761003512504259128e+00,-3.717476633535080399e+00,4.115756362913789879e+00,2.043107691603828613e+01,3.847880722689438482e+00,3.302187157120378469e+00,4.369788272063921397e+00,-4.751665816368079831e+00
8.884901788059959005e-01,-1.989967024115052396e+01,-8.839360079508917778e+00,1.696008341816153475e+01,-1.424215691711385823e+01,5.884080388012958629e+00,2.793302819642038415e+01,6.177104388860621853e+00,-1.083208369748530586e+01,-9.204288536193409698e+00,8.588432210657416022e+00,3.241650409527643717e+00,1.038328193197268057e+01,3.232456990472929892e+00,-5.050009046183916439e+00,3.850684577946957621e+00,-9.056815948558409879e-01,2.137644052633658198e+00,-6.324384463186527583e+00,8.519650109680076966e+00,3.774747360166458066e+01,6.161530796532603382e+00,1.364346913412220097e+01,4.612177760049096520e+00,-1.792720717480686687e+01
-2.663453276137027004e+01,7.143928754782476354e+00,-4.026189933319036385e+01,-2.022270241349263031e+01,6.004222652419080042e+00,-4.650529491926206127e+00,1.558179353773363296e+01,-1.563361503963877830e+01,2.568825554527610855e+00,1.314604451340313007e+00,1.567318615105358415e+00,-1.181869858748534696e+01,-2.006419964226741470e+01,-4.129468100274992004e+00,-1.167524303045122913e+01,-1.175825880077108820e+01,-1.647803167570868155e+01,-2.134452492105618049e+00,-6.542660151967119475e+00,3.698414996115678921e+00,1.514310265128487210e+01,-1.868397501546633088e-01,-7.098323362590006624e+00,-1.533878407478243844e+01,2.965775454909744013e+01
-1.442375470133671911e+01,1.073178822994225889e+01,-2.120680836528890367e+01,-9.452345020772067841e+00,1.591720022629452558e+01,-2.555738362278230369e+00,1.794932982270205590e+00,-1.313504221083496404e+01,-8.355708915328598607e+00,-1.763417121713681590e+00,3.887319652485660804e+00,4.118647202486224401e+00,-1.330687142680718082e+01,1.177937620925566087e+00,-1.531521550168964474e+01,-9.340001009835278367e+00,-6.364682812557925118e+00,-3.214591721792961487e-01,-8.854904739931109603e+00,-5.936159228280241784e+00,4.828897039474345121e+00,-7.083439011501077021e-01,-7.611589161754247712e+00,-7.163944712508935275e+00,1.620184932777401343e+01
-6.110551529291096351e+00,8.536304670973605013e+00,-3.805798785632460834e+01,9.047563109296218542e+00,1.338750423692817293e+01,-9.313473717129273410e+00,-1.494385234879901247e+01,-1.275794093699165543e+01,-1.297566098913417321e+01,1.895891857216953913e-01,-4.657249659503612804e-01,-1.592521258241854376e+01,-1.480501272186286954e+01,8.589717495557746219e+00,1.413981093758441276e-01,-5.884118188163028229e+00,-1.289509370959599188e+01,-4.109087691441161705e-01,-4.365642603610209171e+00,-1.569042880975629650e+01,9.677445094188856345e+00,-6.138266800241185095e+00,-1.269747338826161531e+00,-1.483090626888092878e+01,2.408264294974138053e+01
-9.519522586431639510e+00,2.069322362979561181e+00,-8.564149120906698442e+00,-1.957203763574025501e+01,1.337587713987734794e+01,-5.043513446454872096e+00,1.608297698634957840e+01,-3.174328592522470238e+00,-8.291707372581726077e+00,-1.109417353191409639e+01,1.492313647101236640e+01,2.254879804086452388e+00,-7.158769182606414816e+00,-1.403793920375931137e+01,-1.526922378312612594e+01,-1.076193542178942408e+01,-3.641750730450259432e+00,4.579302558442118531e+00,-1.233252162666559926e+01,1.137599479636659616e+01,4.187939305158303149e+00,5.282035102997011400e+00,-1.303792221792351747e+01,8.400944114590572553e+00,7.696706593228329396e+00
-1.450081707462302738e+01,8.033479147976679613e+00,-2.044686877915832923e+01,-3.134290522101395027e+00,1.446556147847973506e+01,-6.116698537479773101e+00,2.866791140890574852e+01,-1.042954394545326480e+01,3.848626085936060814e+00,-1.702812897798398240e+01,9.847440336039129605e+00,-1.341940769519240462e+01,-2.052219130312294837e+01,-2.028800276368554734e+01,-1.316932042746126363e+01,-1.553693411665290469e+01,-1.365543484849141009e+01,2.510765195623369528e-01,-2.059613901994427820e+01,1.276257462335173365e+01,2.813366513129142632e+01,2.379173048145425629e+00,4.607849456776583530e+00,-2.047988164385510679e+00,1.324090366245014216e+01
-2.072569383285837930e+01,1.415803371565979418e+01,-1.230938790722988285e+00,9.908557265668767045e+00,1.315533081835856954e+01,-3.930071159321253949e-01,9.922893310248900534e+00,-6.654834025404134046e+00,1.824807718866240824e+00,-3.082649867278271394e+00,7.726266805096883239e+00,1.443990268754632211e+01,-7.642767710053254504e+00,-6.911206929869153193e+00,-2.006380719931588530e+01,-6.424558074465395840e+00,-3.387090388407362873e+00,1.340633927744801168e+00,-2.004308842860239182e+01,3.999074924910503093e+00,-3.845543714774938060e+00,-3.049699844104742041e+00,1.581138948924597365e+01,-6.178415976529405995e+00,-1.011365225282085589e+01
-1.008535509953069997e+01,1.298061748868594023e+01,4.846723400720206243e+00,4.957034697271236467e+00,1.688294859583984930e+01,-5.087790102244065693e+00,4.621884016985242205e+00,5.329413366568905852e-01,8.959640077143193437e+00,-1.550881717618698197e+01,1.078519099893653532e+01,-3.768406774224717815e+00,-6.487810085734720289e+00,-2.071038204662834659e+01,-1.067929300089886446e+01,-1.025965208961913788e+01,-6.803840453805750421e+00,-1.867654243178966000e+00,-1.216488863136530085e+01,6.635026525055042868e+00,-5.850918169626544874e+00,-2.049269489484477180e+00,4.177736699991870140e+00,2.331024505965781479e+00,-1.979770423227866782e+00
-1.489942960808421901e+01,9.910768866601397775e+00,6.364256783027327558e+00,-3.190333488309181398e+00,6.422947921660894899e+00,-1.265603602631198088e+00,8.582658565925354921e+00,-2.831611102124845236e-01,-2.567561852414725010e+00,4.372674821802734257e+00,1.214456592248694378e+01,1.486902257161622209e+01,-4.553909380502388693e+00,-8.587149014965103078e+00,-1.869320542359463033e+01,-2.307823373424374491e+00,-2.126879032555591742e+00,1.844741366845234154e+00,-1.622704950862046402e+01,2.776068494483675320e+00,-1.207912433873434033e+01,-4.018359359207567039e+00,1.699192142976842845e+00,-4.678378443747368109e+00,-6.770311732747118505e+00
1.207916155349201492e+00,6.938191435365208548e+00,1.397841963422161093e+01,-1.879786192443103632e+00,2.697376826769786184e+00,6.516116463668331527e+00,3.178998782886990782e+00,3.700326820754697987e+00,-4.863395523175378266e+00,-6.668663296949298491e+00,4.632078909437641556e+00,2.547777744860196147e+00,-4.222080181060020365e+00,-7.652282044230429570e+00,-5.010786388859540530e+00,2.193324407528542519e+00,1.169834951268206957e+01,4.702393204162636842e+00,-2.193585339766401887e+01,3.912472255135509780e+00,-5.973292980177293821e+00,-9.621029583399165475e+00,1.745993744658842672e+01,1.286301455034751839e+01,1.676595727473771191e+01
-5.181187477960668808e+00,4.742260872105985570e+00,5.676432879961647693e+00,-3.206791650788922143e-01,-5.714545669988914334e+00,1.401229227614390282e+00,2.858369298067353625e+00,-3.562746908114579281e+00,-7.161446303854138717e-01,1.093474128361147102e+00,-1.945192605270338770e+00,6.344221179862374882e+00,-2.785408714166538235e+00,-2.386216865255505137e+00,-1.076036955658086569e+01,-5.248303541717902476e-01,7.064132208574534388e+00,1.400494367009229357e+00,-1.974764434188466211e+01,7.414764928309270253e+00,-6.734716862652813774e+00,-3.717138983926754570e+00,1.645718922011017327e+01,2.026043752488587923e+00,-2.382363351880713687e+00
-1.532994442773795996e+01,9.462979991256668555e+00,2.447474682892297437e+01,8.849696722876200239e-01,1.301595881899854490e+01,2.801865722985242169e+00,1.207285099732324873e+01,-1.441593077204361917e+00,-1.300376306075748012e+01,-6.537851919392786648e+00,2.430897296743976099e+01,1.485449489058969341e+01,-1.490795608919902815e+00,-8.827319544430171083e-01,-1.547214554655062280e+01,-1.512957873092783290e+00,2.633494897514816913e+00,4.655788577454957000e+00,-2.582865811921065458e+01,-1.271982760671155788e+00,-1.342453604640788534e+01,-5.225666209714005639e+00,6.833936539995955073e+00,1.313392523573938320e+01,1.246319071426641045e+01
-1.055193221765753542e+01,6.121836239888315490e+00,1.986680626012564588e+01,-4.515358126286209028e+00,-3.381871202387390252e+00,-2.650332932251060036e+00,2.328979286001794158e+00,2.049895142316618291e+00,1.883489706826417365e+00,1.919808479953345914e+00,8.045149017538202330e+00,4.134082363759759460e+00,-5.847467972399940095e+00,-7.585541294821858571e+00,-1.040664898458964061e+01,-5.219901100359851220e+00,-2.583855175923474246e+00,1.781101537234775378e+00,-1.019089436714631880e+01,8.407600708271427692e+00,-1.190627743550552609e+01,-8.793047581857164063e-01,1.652847881709648359e+00,1.958628235327600109e+00,-8.015793402463646800e+00
-2.526702881178963267e+01,1.468921969616633127e+01,1.368145279591156971e+01,-4.527798950736615424e+00,-9.653356571008217202e+00,-3.495210158568099246e+00,1.723010952510403815e+00,4.113041397140197120e+00,9.990291769754001905e+00,1.481231722876573365e+01,1.708937182103445807e+01,9.407590629614793087e+00,-3.299701366986476980e+00,4.324074929844321069e+00,-1.275134243265745937e+01,-4.797108215024132427e+00,-5.959389185628381824e+00,2.750391467082820007e+00,-1.260441036413652505e+01,1.466458943620850164e+01,-2.316333461409653793e+01,5.507832607082028709e+00,7.724654262929536941e+00,1.238653418900964365e+00,-2.912017717256713567e+01
-4.534488613128549339e+00,1.458228323664222259e+01,1.241521665385483608e+01,4.720957232337563703e+00,4.711488963108784844e+00,-2.002301313589322618e+00,-1.910753983309460835e-01,3.306305909888470396e+00,1.582674627977271520e+01,-6.112525015597198852e+00,1.450271667095478634e+01,-9.506531937171423863e+00,-1.752240795808906570e+00,-5.010850786178656868e+00,-1.995867205597450678e+00,-7.093650324135405860e+00,-2.167506170929899945e+00,-5.512965527317176262e-01,-4.376178372850891840e+00,7.012713084751361237e+00,-1.676397036275132280e+01,1.964783252108801559e+00,1.006212236425552931e+01,5.410235268209887316e+00,-2.102267490038066811e+01
-1.767583558753660000e+01,2.033354589612209651e+01,2.562335001253836353e+01,-5.236215763707157578e+00,1.923978700456337121e+00,-4.178895373348199271e+00,-8.826223514248942692e+00,2.416116282144427363e-01,1.242592165649179314e+01,-3.745452307355346289e+00,3.133882709026843827e+01,-9.908644281034707291e+00,-7.493592014365714427e+00,-3.525753514855028303e+00,-3.228363295753994056e+00,-1.021731909830779017e+01,-9.251316219542660590e+00,-3.730711949210699707e+00,-9.092330484682525693e+00,2.500050334683910247e+00,-3.694592933263297141e+01,-1.878539051509057423e+00,5.473397793042192205e+00,1.898067012265437725e+00,-2.057222079617061183e+01
-7.773166256408861940e+00,1.199878104480835006e+01,2.537488040176047477e+01,2.085350384224124554e+01,3.839453833881516065e+00,-6.559429943012385911e-01,5.878037293058064883e+00,5.757526499257464181e+00,1.785396185535930513e+01,-2.107316908528803623e+01,1.498358464538180002e+01,-1.488450323779482432e+01,-7.493893073845590003e-01,-9.341182823731454477e+00,-6.174362329692945295e+00,-8.327972696603023195e+00,-6.618790879381123204e+00,1.000119197939537186e+00,-7.471637774825948597e+00,4.381194741124858183e+00,-3.489886767492556885e+00,1.946914831559885428e+00,1.720226090074428527e+01,7.788041060331953425e+00,-1.878304815997892163e+01
-1.495068766446813635e+00,9.883945545245191866e+00,2.310419695224790360e+01,6.148422548143879673e+00,9.326433903471178510e-01,5.280847469241539693e-01,4.632239780319496347e+00,1.065615719486457103e+01,1.424364414247626698e+01,-6.174097644368347737e+00,1.488064202259722180e+01,-1.101821550646302583e+01,-1.626961228192900455e+00,-1.233057160643557282e+01,3.696119848024941756e+00,-1.469908734595365196e+00,-2.855127244943171938e+00,1.561472573543711828e+00,-8.074900764209711923e+00,1.167921825323784901e+01,-8.098265367897353073e+00,2.920503864857811660e+00,1.134369069541671138e+01,8.172316720167932758e+00,-1.838355704055583928e+01
-4.788537346209996493e+00,7.418414991655629009e+00,2.928190998825443714e+01,1.750020829364621733e+01,-4.505897406063914090e+00,-2.240204431168514976e+00,-1.434328039312420477e+00,9.288695864647259270e+00,7.752971360910048126e+00,-8.542641498970963809e+00,1.567980423443637328e+01,-1.729906317167512597e+01,-4.448901375150708937e+00,-1.399061170324785586e+01,1.001067882246295149e+01,-5.090108239617064712e+00,-5.790755676791985884e+00,-2.350665753467874541e+00,-7.152586017146607134e+00,9.265182432616203556e+00,2.949238349550461713e+00,1.652289823011841019e+00,1.108955610469846675e+01,5.001734897933341806e+00,-2.273596427310381074e+01
-3.849123890903906720e+00,-2.691778330709732048e-01,6.445330624102071582e+00,2.519933805674878258e+01,7.266630074453382937e-01,9.609353531879756272e-01,1.279471319156179021e+01,5.953201140507653477e+00,-1.928231279971056034e-01,-1.669761914640483980e+01,1.411301820643510752e+01,-1.058675299401162384e+01,3.812963078233670977e+00,-5.349110625633217708e+00,3.076877713561163574e-01,-3.024740275865955841e+00,-5.082400698444623721e+00,1.056266614808997639e+00,-5.135291855690094387e+00,8.054875167303244154e+00,2.487400792532409355e+01,6.600314424232531785e+00,1.706852495649336632e+01,8.132989311474112526e+00,-7.537068128348860085e+00
-6.984480641878161311e-01,-1.473059370447263738e+01,-1.977074097976120370e+01,1.757413966085467649e+01,-4.557603968620968615e+00,-5.556044149321298642e-01,1.853291594910988849e+01,3.134405854605573527e+00,-4.614002415350138442e+00,-1.174463641917126999e+01,-5.003177688757547870e+00,-5.662555003899921502e+00,7.142714492194736309e+00,2.107619614399190766e+00,-5.261760688671171415e+00,3.045430682562296987e+00,-2.499407478482001732e+00,5.185195964890523257e+00,-5.052160206640859741e+00,7.663068270841253415e+00,3.489768739633905881e+01,6.974045776124022211e+00,1.415543623405797824e+01,4.409950833403908810e+00,-4.914596865789659375e-01
-1.008590241521487130e+01,7.758972458252105575e+00,-2.854671201988391260e+01,-2.758469809823657926e+01,1.484694705910092161e+01,1.024066111252228239e+00,3.201623510756328983e+01,-9.741614109006377475e+00,-2.123432075397165553e-01,-8.573459724127395987e+00,5.465541548031925601e+00,-7.442021611798480762e+00,-1.738010223260910436e+01,-1.745462036367397829e+01,-1.196028345441419560e+01,-1.482651240392940295e+01,-1.024679131290625200e+01,2.440346811852138198e-01,-2.189735170982536783e+00,8.543888153520333262e+00,2.318429651839707617e+01,8.876680567620304885e+00,-2.068222165160224080e+01,-8.410858088633188956e+00,2.140199386649296898e+01
-4.238339011978425219e+00,4.425881847594604679e+00,-1.645539030354092347e+01,-2.752216185467118770e+00,1.199524219862688135e+01,-2.878923625081978299e-01,9.014082517800822814e+00,-6.305723761456963672e+00,-2.950276171091459787e+00,-8.396554068495049705e+00,-7.155746197736883474e+00,1.140295834401395592e+00,-9.021674702515110056e+00,-2.157413372205344793e+00,-1.177445726878630872e+01,-3.754392271759317001e+00,-3.674595467126361203e+00,1.070140277973078424e+00,-7.150297667713565453e+00,-3.598584327806140237e+00,1.308939378589807134e+01,-1.977085845936378261e+00,-1.885060317016108433e+00,-5.705875742042595178e+00,1.605067741256898373e+01
-9.637969316602612579e+00,7.555180073256861917e+00,-3.791997124928870733e+01,4.572812461878540624e+00,1.761249977466372840e+01,-1.699062619210224767e+01,2.557963048453243182e+00,-1.512509291716240334e+01,-1.373203497911039683e+01,-9.681174782568461978e+00,2.394277921291248390e+01,-2.077417508329390117e+01,-1.735521724866307380e+01,-1.173680719732211131e+01,4.967860170158098221e+00,-1.929158749577933207e+01,-1.717160059878957412e+01,-9.653233441003399307e+00,-1.132430127989904811e+01,4.249558693363405304e+00,1.886580187034921252e+01,-4.151386808271501749e+00,3.384189879088145059e+00,-5.352350527618806808e+00,8.400125332535033351e+00
-3.984780965010590315e+00,-2.599931851659753601e-01,-1.797916670366818437e+01,1.399339342214959991e+01,5.063438332017876853e+00,-7.828458545644375377e+00,1.434867769254756986e+01,-4.584327887517795297e+00,-9.514498495166487047e+00,-9.549553778889555034e+00,-3.593402198420571736e+00,-4.095137960919458031e+00,-9.152260939631164050e+00,-4.857225371357774435e+00,-1.042680847807007716e+01,-4.878024966235290805e+00,-7.859741640995592249e+00,1.797639120628393483e+00,-1.480362862955854197e+01,7.092100366127245259e+00,3.109277133747377775e+01,1.923466129996646012e+00,1.033646225744012881e+01,-2.683856056472060381e-01,6.204614179285931286e+00
-9.189131202796295028e+00,9.892775824209792290e+00,-5.383951257882650054e+00,-1.108303204407413034e+00,1.486809020122939451e+01,-2.275415836984843398e+00,1.715854032640165272e+01,-2.359745423793613295e+00,2.850301389293459220e+00,5.527195702401171973e-01,-1.923963172003158029e+00,1.553334916109974806e+01,-1.887343176974346948e+00,-4.074501839329680131e+00,-1.690546702443715077e+01,-1.422110209874236086e-01,-3.524152369784496308e+00,3.237201869523449016e+00,-7.590895975444588828e+00,3.716043526812857323e+00,8.669425587815108969e+00,1.229506141669134411e+00,-1.051125260966367847e+01,1.566854867927802486e+00,4.964917274079321707e+00
-2.153935962678414029e+01,1.476329129299829646e+01,-1.014738621444149480e+01,-7.966214020690400022e-02,1.603621135001635167e+01,-1.489775384592667073e+01,-6.990819729236472213e+00,-5.625372796892811778e+00,-2.030128760763147078e+00,-4.540490623769511735e+00,7.386527290568731807e+00,3.844919889187265127e+00,-8.685537243221549630e+00,-1.852305467758364088e+01,-1.705745567532271778e+01,-1.744227351874256371e+01,-9.268461476660112552e+00,-4.404425062079373454e+00,-1.558616411741156327e+01,6.237909852617494089e+00,-8.211080731566752888e+00,7.498676811875173431e-01,-2.263101080677138555e+00,-7.246921109311783571e-01,-6.258465046241322050e+00
-1.475344106265833766e+01,9.391616506632223249e+00,-1.621509554455451863e+00,-4.894473916197427776e+00,3.859979664811060474e+00,-9.787687107028625988e+00,1.271644166879714710e+00,-6.908671381851898552e+00,-8.294126393660482544e-01,5.521629253695798489e+00,6.140145178968150041e+00,1.174073557795587242e+01,-4.133461554378080827e+00,-1.131180226025490754e+01,-1.657803649103608024e+01,-1.023007862075750118e+01,-6.363380217263249428e+00,-5.464621718196702282e+00,-1.105395255555334089e+01,4.128692577155383070e+00,-7.408622657592719207e+00,-7.528075530811912941e-01,-7.660257064419481843e+00,-3.974617350691453943e+00,-1.311749898606944420e+01
-1.876636017906277587e+01,1.594858264120144575e+01,1.800436676732675156e+00,-6.376279989176260266e+00,-2.042760783559049109e+00,-7.654816423179276796e+00,1.111356126455797400e+00,-8.771508106626336954e+00,8.446826772810860362e+00,8.806877100699725958e+00,1.205602318888136004e+01,5.672589120693802972e-02,-6.202211928281839981e+00,-7.769450676761619157e+00,-1.090952728362135637e+01,-8.507489977050706642e+00,-6.304024695163371383e+00,-8.601241936305935809e+00,-1.117296326813965024e+01,9.260207761987494735e+00,-1.196623883058940940e+01,-2.291158190522815552e+00,1.322108063416554513e+00,-9.272845131174337396e+00,-1.393521453662635423e+01
7.167068030698112935e+00,7.820404127087424051e+00,5.970336936829384378e+00,-1.557395270560052580e+01,5.459777631962065669e+00,-2.900388856577141183e+00,2.678655130006520668e+00,4.960333260987446202e+00,-5.511227083580954478e+00,-3.403299760709195820e-01,1.368901607443983703e+00,7.238533750289493085e+00,-5.008377645054362670e-01,-1.151746793406794289e+01,-3.841806442947812705e+00,-2.904178460282496044e+00,1.273552594631857104e+01,4.817496025429098827e-01,-9.822313629515186051e+00,1.086713074757959774e+01,-8.819910899832475337e+00,-4.207923751769325094e+00,-1.471451258588414746e+00,1.748484154402480328e+01,1.239749718435728454e+01
-9.931395019910381095e+00,1.042077524967468882e+01,8.537164865730412444e+00,-2.140984097052658797e+00,-4.272910427782856679e+00,-9.822381924489984595e-01,7.541673081188237093e-01,-5.806429703427167688e+00,-3.593789719854387776e+00,1.192529609598073037e+01,7.882340390850991696e+00,1.322752781637685082e+01,-3.638086505871200416e+00,4.420716255135911155e+00,-7.238842443474375443e+00,-2.296187592787548137e+00,5.304962981679465450e+00,-7.122119159984009462e-01,-1.997665832910370654e+01,1.172062439219817698e+01,-8.954148988597381731e+00,-4.846547618773691113e+00,8.887566671762257897e+00,5.312281813420590915e+00,-4.915260406024293260e+00
-1.837676662596555133e+01,6.863891389079954664e+00,1.705937997142972051e+01,-3.261046353158229216e+00,-8.944499424260190068e+00,-4.585688467511823130e-01,2.890474976466467005e+00,2.123255497966396899e+00,1.129523051039788895e+00,7.491726123595608300e+00,1.889374538730950803e+01,-5.193883597973238508e+00,-4.739921887811889611e+00,-4.384982876001712881e+00,-9.966304296364350890e+00,-5.736749205732927237e+00,-9.361003424323257605e+00,1.325846687901992116e+00,-1.556093911661057660e+01,6.837799007311904376e+00,-1.028616924357169715e+01,-6.013621939300405339e-01,3.223237029392688746e-01,-6.498003554516978753e+00,-1.068255137896285589e+01
-1.376817101550467726e+01,6.583579423079150672e+00,-4.509665925702080358e+00,-2.036420892875075239e+01,-1.683603703021956832e+00,-5.378464986679850846e+00,-2.337529250433073802e+00,-5.865342672217593645e+00,6.461516453659855053e+00,9.148052242589013616e+00,1.219597909521100298e+01,-1.920061441135498592e+00,-6.841049120589286048e+00,-6.224916301640616823e+00,-8.277229488217303199e+00,-5.064664942172839801e+00,-2.905358218647091206e+00,-4.754300583481763987e+00,-9.815259273133641216e+00,8.587985845355710524e+00,-2.429150810971797014e+01,-1.483649418415253329e+00,-1.514485573606199953e+00,-7.307498371802725323e+00,-1.122872517488416477e+01
-3.114452171704527217e+01,1.970850222062508550e+01,2.001190818348602818e+01,-1.462545118551658874e+01,-1.216425131242541369e+01,-1.406827658318026231e+01,-7.066079626900004129e+00,-9.617129822586072407e+00,-1.694206468653340014e+00,2.161032118163527116e+01,3.089411716674653618e+01,5.062508557447545243e+00,-1.038222187486058701e+01,-4.395721653310457278e+00,-7.700594332181874613e+00,-1.524709215964903741e+01,-1.067820281904920954e+01,-8.588123223168116382e+00,-1.628656592997361230e+01,1.382187059490828673e+01,-3.497365598544374876e+01,5.610078368322447551e-01,-2.800298910571820343e+00,-1.336455180613113303e+00,-3.311097846446891424e+01
-1.223472249955828772e+01,1.680677605845794176e+01,1.450525494626722356e+01,-2.117520952492109032e+01,1.625647386969109931e+00,-1.384602457820579424e+01,-1.079229681356659576e+01,-7.202273792865728552e+00,-3.430822251150320135e+00,1.317147526810868996e+01,3.011934722989653324e+01,1.800016974175005613e+00,-5.615288438531393922e+00,-1.142657800150346326e+01,4.819345665779623644e+00,-1.616663531219282746e+01,-3.939031244622198003e+00,-1.306040369726080996e+01,-7.946894454465008195e+00,8.571522203239439364e+00,-3.210792191277271002e+01,-6.288269484189942249e-01,-1.190263260434686465e+01,1.436292337238560535e+00,-2.454682766198963861e+01
-3.419697484099663232e+00,1.187006056520442243e+01,2.907463100335183981e+01,-6.101898135859333827e+00,-1.965716018762341699e+00,-2.111333160024948530e+00,5.889196026627203651e+00,7.664113713653524229e-01,8.659945033242955503e+00,4.602801953064390439e+00,2.310999165953298373e+01,4.911971374629755083e+00,-2.232020606770258819e+00,-7.495006776378776436e+00,1.130671744745890273e+00,-5.451461163760339623e+00,1.369558020902962303e+00,-5.273521953327922063e+00,-6.907207599739436432e+00,1.021957997545526808e+01,-2.025218904883927706e+01,6.687027032673180382e-02,-9.693540164619333099e-01,2.976688988813064984e+00,-2.863035082519217767e+01
-4.802360320251401582e+00,7.958569639276236174e+00,1.277618815708375166e+01,-1.161725974535012540e+01,4.296044769860484003e+00,-6.582808917924769077e+00,3.237542113471483796e-01,-5.199218483797162227e-01,2.760600985478601554e+00,3.206329053876789015e+00,2.120956535595251324e+01,1.934434600070640276e+00,9.981023159114285059e-01,-6.929477992745371573e+00,-2.143935268074615763e+00,-5.174428115602912825e+00,-1.666805747121981485e+00,-3.261869460918902508e+00,-8.325198586334527917e+00,4.894710441665916179e+00,-2.086049604784047773e+01,4.170849047126083065e+00,-7.537048269009503976e+00,5.529706428240316107e+00,-2.029918680574498069e+01
-1.675262914334181374e+01,1.509288930944629037e+01,2.790366473289575922e+01,9.271989963519674305e+00,4.753977539152566933e+00,-1.724334947622697012e+00,-2.774821039494098418e+00,5.343105724980027560e+00,1.397410749838200239e+01,-1.568735483523260577e+01,3.162424557604461128e+01,-1.829833267308427835e+01,-6.597248625637969432e+00,-1.780101162332076825e+01,-1.137762758257660156e+00,-1.207000748701937987e+01,-8.784866283416127075e+00,-4.193265818820603563e+00,-1.199611374615991188e+01,9.718402418178840207e+00,-1.778998292633021450e+01,1.083191078542117491e+00,1.548776188203946802e+01,5.778132017225295236e+00,-2.466805316202966125e+01
-3.988572018594528590e+00,7.194251867574140924e+00,3.091447669166766943e+01,9.320664544105824234e+00,-7.472995208351429497e+00,-1.239830455553509347e+00,3.186963143682237654e+00,1.361677217096278092e+01,9.327258653397253241e+00,-3.790621937238028760e+00,1.088146239455799957e+01,-5.215179093702382751e+00,4.534450103357190454e-01,-8.084536396293287908e+00,2.069822378310815836e+00,-1.547535568562832253e+00,-2.871905500256008548e+00,1.413447298516338213e+00,-5.786135273335634821e+00,1.573448618363112139e+01,-6.381974593056125022e-02,5.725623303448093004e+00,1.087000687369552132e+01,9.013889142583218828e+00,-1.725578252432695692e+01
-3.786137405609165896e+00,-7.562850371888932166e+00,2.248857236223685874e+01,2.897178438565180514e+01,-8.526351903221554451e+00,-9.630483961015756655e-01,1.384501204292827303e+01,1.091177284593640273e+01,1.458195313643622537e+00,-1.843397365317203906e+01,1.281031905469674292e+01,-2.025458620282248390e+01,1.295576944109425588e+00,-1.296033233288823894e+01,1.215735697590881692e+01,-5.175799182183773439e+00,-7.711812628489912669e+00,-1.449057406074510501e+00,-6.883478673374987977e+00,9.550314911497565618e+00,2.160457166255020667e+01,3.385882633781351903e+00,2.028973147279850764e+01,3.860769647876868493e+00,-1.941723621661179067e+01
-1.132795707775123173e+00,-1.375771954102075512e+01,-1.398656030803461903e+01,1.103743332125699261e+01,-3.131097645806745433e+00,6.146799321873984701e-01,1.602662347556201183e+01,4.754913751174520975e-01,-1.807324050278905636e+00,-9.945998009881646951e+00,7.110613707780787607e+00,-5.234594498272408636e+00,7.471999574631431607e+00,-2.746191477272301174e-01,-1.534775782476889949e+00,-3.952553862096601089e-01,-2.398799479013505209e+00,-3.382243309385188357e-01,-3.088403313960035756e+00,5.014994901958106155e+00,2.299667053687627671e+01,6.388266195589853425e+00,1.229989439584521094e+01,1.236173078275541792e+00,-7.582140835133851731e+00
-1.864262112352603040e+01,1.349665821397519494e+01,-4.344993061090057296e+01,-2.664094378922587580e+01,6.680682289224707304e+00,-1.858405304412006842e+01,1.651704168334510925e+01,-1.799722752014072569e+01,1.016630658750596439e+01,5.733052993266516850e+00,1.034195100687389335e+01,-1.131420155113510972e+01,-1.923081982675190105e+01,-2.230962239480259868e+01,-6.822446005068114161e+00,-2.034039501881538925e+01,-1.314397290215948999e+01,-1.525934002350022745e+01,-1.105523434194217636e+01,2.229761716471907818e+01,8.809132961420983676e+00,2.177604445080023599e+00,-6.299431999911150548e+00,-1.200259181967690836e+01,-4.429436605172323738e+00
-1.169741850667515237e+01,1.843266826593626950e+00,-2.904885604361149376e+01,-4.122252111000776154e+00,1.596214193827239392e+01,-1.571592158859097310e+01,1.354464957423370208e+01,-1.357611583975509006e+01,-1.855530176337373760e+01,-4.317260974535378715e+00,5.854282230658137465e+00,7.051433214106883618e+00,-1.261666259698689530e+01,-1.538469669188992306e+01,-6.167815379417551647e+00,-1.215689925691867401e+01,-6.124188818907680520e+00,-1.044563170251025852e+01,-1.291103766164226663e+01,4.582424253380651180e+00,1.309058538899330237e+01,-5.090737739293125230e+00,-5.889971778536695624e+00,-5.819904955806839197e+00,2.328175373473534204e+00
-7.953596157047264192e+00,1.238970053822741946e+01,-2.129866875697532436e+01,3.313830257447951122e-01,1.981199497860417935e+01,-1.536151288179591212e+01,-1.667484877293315071e+00,-1.414600876164508847e+01,-1.118965378707150471e+01,-3.070182904891650466e+00,4.617761687629887035e+00,4.341774121901463168e+00,-1.366574454401802541e+01,-1.558934861831303564e+01,-1.830814757708029150e+00,-1.099629695901744064e+01,-5.917252720382633058e+00,-1.051549350048996345e+01,-8.286554380877156234e+00,-1.425957378721833368e+00,4.178414105727240369e+00,-6.222800517339075022e+00,-8.819289255975153452e+00,-5.268308977848507269e+00,4.967546103704689742e+00
-2.720343860159619354e+01,1.416987136020139637e+01,-1.597205916039843210e+01,-9.284787153263390769e-01,1.049799283527115712e+01,-1.463669158763725697e+01,-4.362024893417721927e+00,-9.947303796552299460e+00,7.753028780719276369e+00,-1.417979874247350613e+00,8.413104086786759694e+00,-6.265313666711901597e+00,-1.383775402485005657e+01,-1.542920928553997051e+01,-1.199924163216040007e+01,-1.833632455368380576e+01,-1.502518276952924126e+01,-9.437810058663965052e+00,-1.313913402939997077e+01,9.551923493802259912e+00,-4.627032436807501092e+00,1.098600434128310210e+00,6.872819844197198824e-01,-8.622700275536015369e+00,-5.503067301098057307e+00
-2.123169749442164189e+01,3.659613882480210023e+00,-1.047849324939457460e+01,4.051651603438327420e+00,4.540289258016882989e+00,-5.272186806498462275e+00,7.287161375727968071e+00,-5.917093597387488302e+00,2.799156435212163618e+00,8.164824140260676932e-01,-8.322660709176874505e+00,8.692388169957332877e+00,-6.076608046331291924e+00,-7.067832806905485654e+00,-1.885959885523039858e+01,-6.097097065003850069e+00,-7.743956704084907550e+00,-2.510004310412188300e+00,-1.344640397265645149e+01,-2.497787199661929969e-01,4.368834610438875110e+00,-4.007278270951674659e-01,-5.883390374360689679e-01,-1.113794815086476753e+01,-6.356729895359189975e+00
-1.859305621524051233e+01,1.109591725049451050e+01,2.721785095843511471e+00,-1.370493164655787588e+01,-2.332162870844388891e+00,-6.607780995782831290e+00,1.074361704830850073e+01,-8.529524581849663889e+00,1.123333635184872392e+01,1.448356447288449367e+01,1.047347409611162306e+01,8.426642835453883151e+00,-7.891814448404723237e+00,-7.348185918950448148e+00,-1.458120693735465245e+01,-1.016942696138985625e+01,-9.166825815280501999e+00,-9.000632940315206554e+00,-4.295475596577205124e+00,1.065695089654534122e+01,-6.977416729220502489e+00,1.143293793351376708e+00,-7.529392219122843954e+00,-1.038723608794249387e+01,-1.151104435098319811e+01
-8.648748426816456059e-01,9.470960123702084843e+00,3.684196445561592537e+00,-3.287910785227071031e+00,8.178536775045774920e-01,4.970760056439557317e+00,1.027695819604109850e+01,-3.372070353935400444e+00,7.831913649696222279e+00,1.190321842126164142e+01,-4.611217107437144413e+00,1.585832336127386988e+01,2.270128607624516751e-02,7.311013141513786895e-01,-7.877366148941809421e+00,3.293912066382343351e+00,6.492505002499774136e+00,-8.528108768713803522e-01,-2.129454646501942883e-01,1.010173861783708826e+00,-5.915077802227362014e+00,-5.230849232549605432e+00,5.711844014140257997e+00,-3.221116773725865912e+00,-2.748643292062077581e+00
5.860630739009708989e-02,6.749571944477701813e+00,-6.207455374412101240e-02,-4.340637054695662966e-01,1.252568501008970436e+00,5.144815712896999571e+00,2.648646340174872549e+00,-3.152235413444596457e+00,5.289169997416856894e+00,6.033084992339492914e+00,2.145767566464759302e+00,2.271537299118804309e+00,-1.753335568431748648e+00,1.683155575517467639e+00,9.121587942515338998e-01,7.107070283294236734e-01,-5.630684991657983751e-01,-1.118999278175700107e+00,1.970369231571157398e+00,-7.038202230106632706e-01,-3.512429562308137854e+00,-7.766098926134249458e-01,7.400690472807053277e-01,-3.323149960662210134e+00,4.579601165606894675e-01
1.069317055565695362e+01,8.499565636718394046e+00,8.489210843298977238e+00,-4.980369551496290015e+00,5.811885287668139277e+00,5.671673971779923384e+00,7.762137902886076191e+00,6.021711693726192749e+00,4.359445373294514425e+00,-7.469028390368440684e-01,1.653049217262904325e+00,-1.524463081705507372e+00,-1.337136556597632975e+00,-7.160466835469456726e-01,3.265396666327632147e+00,5.332422761917104737e+00,7.515026723118183760e+00,2.879857387380897471e+00,1.414544227617477112e+00,3.644368707929816154e+00,1.673257196686169568e+00,-4.017845700117464780e+00,2.924521679962043930e+00,7.702324966678477658e+00,1.475551961269387569e+01
7.516834252656432902e+00,4.921181943426556238e+00,2.134586612801309258e+01,1.363747259875019546e+00,-5.460890230231905562e+00,9.284082707947854729e+00,-2.719432310449134693e+00,7.679113389929475453e+00,2.214057477957717790e+00,3.515977927688810567e+00,6.854260035023059139e+00,-9.024566058423475923e+00,8.625376928283123856e-01,-3.302151742146274827e-01,1.055909666292447824e+01,4.987219692366706703e+00,7.091456662217054507e+00,4.234140936041876913e+00,-2.078808690065991893e+00,4.677448832942018853e-01,-9.644370219022576407e+00,-3.485492588215925114e+00,7.636902160741129819e+00,2.959569978647871746e+00,5.699897866125741785e+00
-3.537785974027307656e+00,4.430946817400419846e+00,1.163873050199875436e+01,-2.398733384370969723e+00,3.241620311670884824e+00,4.428295163184495564e+00,1.171005198816235016e+01,1.130234029320368538e+00,7.411619506841267413e-02,-4.169753163432312171e+00,1.446641422395242316e+01,-4.503258375316516293e+00,-1.337683013458538905e+00,6.368283830402492462e-01,-7.165753988085161730e+00,5.120164858559603793e-01,-1.882136060452824333e+00,4.681729562297677560e+00,-1.028130236532307862e+01,4.650422839281358023e+00,9.876579487482790576e-01,-6.113045542698894996e-01,4.324375421762217897e+00,-2.284750095193701647e-01,1.103486490445098411e+01
-1.895299681339111686e+01,1.371472646954536145e+01,4.793576609937382216e+00,-1.316287964049000259e+01,-7.860661530353477922e+00,-1.684957397881685415e+00,-7.652567982324013363e-01,-5.513284178821190373e+00,9.028167647864890455e+00,1.573584247773260891e+01,1.713445074249037603e+01,8.999000774275185410e-01,-4.429483196080197693e+00,-3.362580991531463059e+00,-5.597658954650523100e+00,-5.062709963454990358e+00,-7.151669502305046500e+00,-4.469073601032594212e+00,-1.057690223097038995e+01,5.422913506411512152e+00,-2.684215148064314249e+01,-2.242168794761263406e+00,2.691333459340832235e+00,-1.508490136192082787e+01,-2.286414966515247116e+01
-1.672516076645824157e+01,7.465389426647517368e+00,6.322062335216096507e+00,-1.152071843004336849e+01,-6.183524083732664600e+00,-8.529587427669724775e+00,-7.943808222224601145e+00,-7.819041888393782891e-01,9.648661241029007352e-01,1.600910456519213554e+01,2.276407164887858059e+01,4.558727201462521528e+00,9.746297559937255883e-01,5.219424804203675272e+00,-8.448343157904364631e+00,-7.555837306818379062e+00,-4.569555234608919214e+00,1.198197651089198262e-01,-1.030046224484710571e+01,1.024632738898828066e+01,-2.835651556985472510e+01,5.390458605777677548e+00,-1.974716261010215135e+00,7.962605605012906373e+00,-2.508974615523720786e+01
-5.801962924012018519e+00,7.908377666486440916e+00,2.082132695006074741e+01,-4.982699021044290077e+00,-5.984931288683723594e+00,-6.854500297071123960e+00,-3.838670445270574216e+00,4.496195099355932423e-01,-5.998588959505449930e-03,8.500042004025747389e+00,1.784806626090163917e+01,3.504585329325457188e+00,-1.733316457127644039e+00,-4.192216935458020544e+00,-4.597244128059547741e-01,-5.995693869535418052e+00,-2.232736588134929701e+00,-4.973904289803900092e+00,-7.247416144570847152e+00,7.905383509061187475e+00,-2.024745257834738155e+01,1.270360322265289499e+00,-5.907091949301892519e+00,2.852882749958311148e+00,-3.095302278828624765e+01
-8.590279119352304704e+00,1.074760291337118723e+01,1.801856012404380891e+01,-1.369540728113141625e+01,-5.937458663308285978e-01,-3.068050309123902419e+00,-2.131961695881173124e+00,-2.954516694127363063e+00,5.322297900821150174e-01,9.805480095347201441e+00,2.465665119803130167e+01,8.012494227663372826e+00,-7.133479195719950594e-01,1.260822615572863681e+00,-6.572774043934510146e+00,-6.153890056825207289e+00,-6.712809021484449357e-01,1.010274724774976596e+00,-8.822855532752416963e+00,9.770981327918084602e+00,-3.005584271257216145e+01,3.995573465313108308e+00,-4.998708915528277785e+00,6.698587683501667556e+00,-2.221180264869305176e+01
4.127301269064175493e+00,2.327183309769885078e+00,3.180471574380281297e+01,9.374682395411973346e+00,-8.676977053757457981e+00,4.280941256999457600e+00,1.388376707181006964e+01,1.876092080714237653e+01,9.527116261332409408e+00,1.186816159825883510e+00,3.317556997787358242e+00,9.030494090689895614e+00,1.017662024943491694e+01,4.077639758240628076e+00,-3.087015933570993020e+00,5.569678705221706494e+00,1.278859677469036393e+00,1.237931262022754275e+01,-8.300412058150412165e+00,1.320385610855505654e+01,-2.377751150068180275e-01,9.915344774345133061e+00,6.620870754666525748e+00,1.388510574495218819e+01,-2.462470040365034052e+01
-3.023773589032846321e+00,2.526802085527058317e+00,8.972237387879298254e+00,1.176661213485440527e+01,5.368108428472029292e-01,2.494725227866527728e+00,1.054453899496506253e+01,8.605906272248414979e+00,1.037829528655472089e+01,-1.291699609480648014e+01,1.734666894843150686e+01,-4.943596859133359445e+00,3.485094597586607446e+00,-3.009152596891787046e-01,-9.403240641912146813e+00,-2.218116730956136262e+00,-2.066406970356010397e+00,3.676193623255024523e+00,-5.166125349122675736e+00,1.469981061838237402e+01,4.956361430216485786e+00,6.030117255943500787e+00,1.685471447818093438e+01,1.107778406614530198e+01,-1.476493594693437039e+01
-2.455558748559401483e+00,2.815391810839609210e+00,3.311084801480006057e+00,2.903708886439495984e+01,4.689033222345257101e+00,-8.996812689229264359e-01,9.035404073153467053e+00,9.903300807040084308e+00,1.676487542068075598e+01,-2.389613249126469086e+01,1.189145358334459246e+01,-1.105447892017146927e+01,5.674458326043937184e+00,-2.874097969980870193e+00,-9.813751502775266644e+00,-3.921588141893354251e+00,-2.590410073523726098e+00,6.479831994310847776e+00,-6.269871001620661133e+00,1.723605818952507818e+01,1.893580699284296642e+01,8.243440534378962070e+00,2.867966781044471958e+01,1.488934489281630213e+01,-1.878106163301767140e+01
1.509555275722822554e+00,-6.007708500963018672e+00,2.415580499089506006e+01,1.699442387987673087e+01,-1.324844786079019521e+01,5.402230418287132352e+00,6.571566087912405152e+00,1.751273580424325971e+01,7.219086726046125335e+00,-4.924066659959190240e+00,-8.254422200345805649e+00,-4.770928021752437687e+00,7.228581193699294083e+00,3.799872520277612242e+00,-1.283125820717470722e+00,6.830084383533812087e+00,4.890838377087653455e-01,9.028976503766541484e+00,-1.966053127323409644e+00,9.094762171906522141e+00,1.124772009030991526e+01,6.138882468673476644e+00,1.455627905754876039e+01,1.060952520787841280e+01,-1.467307436520207098e+01
-3.389466858302682795e+00,5.931077925751444546e+00,-5.293660671585383781e+00,9.737358178584001323e+00,7.262489386811674663e+00,-5.722731919749325158e+00,-4.200421374168893607e+00,1.230416155369905784e+00,1.067012597674778007e+01,-1.208413173618624192e+01,9.189636362750441823e-01,-1.683209939640230246e+01,-1.906588366677380408e+00,-6.897589132092846853e+00,3.139706560981458505e+00,-6.199538831374588277e+00,-3.725609019919263520e+00,-9.137145981058993893e-01,-1.554075237168081491e+00,8.354211251904533064e-01,5.643911649378866580e-01,5.345973825624662501e-01,7.075864164569243719e+00,2.713358783154914189e+00,-2.180853536822537464e+00
-2.899887641387259052e+01,1.886400251560070984e+01,-5.370306742547536061e+01,-2.426669387371578779e+01,1.841006461646680137e+01,-3.181430333614829919e+01,1.251749815187893766e+01,-2.923538640153074653e+01,-9.820088450834099092e+00,8.405480617548359845e+00,3.130927789294649344e+01,-9.693449528073349697e+00,-2.850436141658459377e+01,-3.109475890344153015e+01,-2.286675371835014126e+00,-3.441114630002640951e+01,-2.175779033533071072e+01,-2.624444074508532054e+01,-1.925653829752646118e+01,2.454747322877710758e+01,1.183260482391374779e+01,3.862599949472496075e-01,-1.216292574665900261e+01,-1.338493878012189953e+01,-8.244888223987247855e+00
-2.357898324591041472e+01,1.682827392697223345e+01,-3.269572776824168159e+01,-1.344008470763162677e+01,1.344782655497449397e+01,-1.701113315123251724e+01,-6.825168523141817545e+00,-1.642197354327125325e+01,-7.048195054496759759e+00,5.172999228336883526e+00,1.299448675060051706e+01,4.614381451082453012e+00,-1.309883791703470912e+01,-1.881021324199497968e+01,-6.913272770145085566e+00,-1.837915621269041111e+01,-6.195780418318149962e+00,-1.471000380991621270e+01,-1.365413980911910130e+01,9.625013186649281849e+00,-1.012120200021671224e+01,-4.719325187500253094e+00,-1.534701157587133213e+00,-5.498790090781501938e+00,-7.345579243061526320e+00
-1.703472562472697760e+01,1.354029874851118187e+01,-2.866924303493833293e+01,1.504271469317149057e+00,1.417216507284544136e+01,-1.125108328325748452e+01,-1.913421477901237289e+00,-1.519789629152634980e+01,-7.801433614665242544e+00,8.996423837163588288e+00,-3.009130470390228296e-01,1.018102373889999157e+01,-1.426328335242831535e+01,-3.460689990143649197e+00,-4.464095717358304682e+00,-8.383254245252841130e+00,-7.893102801800321977e+00,-8.846779683939541172e+00,-1.230462013368461704e+01,-6.321504584461951737e+00,9.929752586555892213e-01,-6.140379928395059750e+00,-1.212350531807091958e+00,-1.569154454430108636e+01,-3.976919859549169711e+00
-1.815255587025054851e+01,7.481114373966961217e+00,-1.722748954340528016e+01,1.275738430773663001e+00,-7.914949319602818667e-01,-5.681068184205570581e+00,-2.207057271397930009e-01,-6.694240810040644085e+00,7.953099576212371291e-01,5.417969954494393114e+00,-3.178674505138120221e+00,6.556966278342810206e+00,-7.558795075835181621e+00,-5.784874442016558760e+00,-1.073049405733582340e+01,-6.615518914056115030e+00,-6.289195542898613489e+00,-1.753298871544864523e+00,-1.052516628755447314e+01,-5.092590733907212952e-01,4.798482998674843958e-01,1.094056568283193975e+00,8.219028831770822663e-01,-1.181172498214114697e+01,-8.848617307634903284e+00
-1.709201924642471226e+01,7.282110522444737555e+00,-1.756371115606955158e+01,-5.474153013942477664e+00,-1.041895404483015097e+00,-1.196904795418246570e+00,3.236105238133760054e+00,-6.319407771848474020e+00,2.939855645150053043e+00,1.377435034506287792e+01,-7.834628320647339939e-01,6.077461245568541948e+00,-6.217795932110964152e+00,9.445620042869136146e-01,-1.466838705376823526e+01,-3.257389390079619140e+00,-1.071887918264786599e+01,-1.579822252004574379e+00,-2.286603468741339018e+00,1.708163544428046521e+00,1.454206473555869961e+00,-2.326255660409865256e-01,-2.967149648396994799e+00,-1.906961050405751479e+01,-4.831862969921097317e+00
-1.457152907159313493e+01,8.620716970554811454e+00,-5.228829116333179039e-01,-4.544206155927211555e+00,1.830183554332210472e+00,1.781537460776844384e+00,6.401685810074448035e+00,-8.244267562333542188e+00,4.519378030232540588e+00,1.635744784498085380e+01,2.646079928249816859e+00,1.964730667387527774e+01,-2.255071938918266738e+00,3.037868451905344269e+00,-1.482963935794808208e+01,-5.524983401582174158e-01,-4.743944122194958979e+00,-2.901327344117412110e+00,-5.036883465544001126e+00,1.434071182301009939e+00,-1.012744652785797328e+01,-6.458567419796401587e-01,-2.761452287694632801e+00,-1.318965497729174174e+01,-1.369245662693410281e+01
-6.001748573266556974e+00,6.226091259575648351e+00,-2.289083568294790094e+00,-5.719113289812245426e+00,2.015843341262109345e-01,-1.431670907126375569e+00,1.342562122457424678e+00,-3.418886507076464021e+00,5.911176615306610316e+00,5.913813726676013793e+00,5.159411910708419313e+00,-1.636939836949737437e+00,-3.129593997533465011e+00,7.736273314509463095e-01,-8.383141240123572757e-01,-1.415339436727405475e+00,-3.956341159606326041e+00,-2.764505497283337832e+00,1.925076332058032413e+00,1.311237990983091350e+00,-6.437919826608611729e+00,3.540904125291235438e-01,-2.323619382547726708e+00,-6.538982243859265964e+00,-6.045470528441041047e+00
4.203319371272748128e+00,2.170066761972595071e+00,1.514698989451063404e+01,2.110415464129399510e+00,-9.264711749725426770e+00,2.470957860923133520e+00,-3.320057728342968417e+00,5.587280742889802809e+00,9.325615574681064501e+00,3.353879033998583559e+00,-4.225379330846041448e+00,-7.565044116489549886e+00,-4.066998944477365763e-01,-2.557201271580978208e+00,8.058910657931482646e+00,1.629179244289672646e+00,3.473184169699387258e+00,2.028679846170112988e+00,8.052886744830433097e-01,6.031836745891779650e+00,-4.861489970570619157e+00,-1.846497462816749369e-01,6.137131638010893120e+00,5.519443615058396979e-01,-7.401658844984372543e+00
2.523438409411778949e+01,2.151128033877637957e+00,1.399371703479784568e+00,1.078068207984246207e+01,1.391166426163197578e-01,4.436699492805248113e+00,-1.510251756987413074e+01,9.564893355879005910e+00,-9.311210732543184321e+00,-2.245567200730531177e+00,-3.000673352117349424e+00,-4.841338418898709861e+00,1.023391703579702749e+01,-1.068782684588958976e+00,1.946609643167072790e+01,1.027525735653575545e+01,1.831237815981901207e+01,-7.326151434557293118e-01,3.108414435791908126e+00,3.603821978956314176e-01,-8.537807968091462030e+00,-1.166189489276649383e+01,1.636400316396306565e+01,1.808427070227330447e+01,1.723580935181138685e+01
-3.965217343869101629e+00,9.512740134402344339e+00,5.369082845876181231e+00,-1.784054513106832474e+01,1.379082944260418886e+00,2.903732804561602876e+00,1.164981269561539889e+01,-1.691562252049159554e+00,2.681625832327192871e+00,2.219135680736573413e+00,3.189977387570575917e+00,7.592989335162139142e-01,-9.812097046620314345e+00,-2.778171287798681277e+00,-7.253788274856349361e+00,-2.477097561818504268e+00,4.009824013150579347e+00,5.320679225545855040e+00,-1.310944353286036268e+01,8.354018850592051848e+00,-3.882276529351297079e+00,-5.788558705635798995e-01,8.669378467948193334e-01,6.409877032701324362e-01,6.005106127351745648e+00
-2.243100180855814330e+01,1.180560792690673111e+01,1.645350759478358782e+01,-1.523653561605301832e+01,-1.151892912960044413e+01,-7.523442743884768191e+00,-1.174041468054878479e+01,-3.446832504809964171e+00,-3.388863714166025165e+00,1.159697315966760556e+01,2.661224422540752244e+01,-1.170107461097861190e+01,-1.059215264490706510e+01,-1.182053742698788312e+01,-5.899518453556055197e-01,-1.142120406954423295e+01,-4.423962471812157737e+00,-7.797000424451645095e+00,-2.267420670412380446e+01,5.449656649787875118e+00,-3.302938697573389248e+01,-5.765479244230275135e+00,7.136835987022123184e+00,-7.689812498445443012e+00,-2.021518808863644523e+01
-1.598070609380793350e+01,1.537741170869200857e+01,1.523127268817720115e+01,-1.028243665095775228e+01,-8.980226822144175003e+00,-1.631385630326750213e+00,-4.080057904488202603e+00,-3.359549956956624950e+00,6.717385234875569822e+00,1.567929319234974272e+01,2.105081181256628753e+01,-5.199824722821114520e+00,-6.279962544419831261e+00,-3.264780390441552438e+00,-2.028668378127797822e-01,-7.311074734303987022e+00,-5.530006980403888051e+00,-4.617046068642083334e+00,-8.558712220585377395e+00,5.235969583849916731e+00,-2.825853437288064995e+01,-3.231395111738947890e+00,3.258974060798194294e-01,-1.079777256181263567e+01,-2.569946216950379991e+01
-1.752550379699221850e+01,8.929069859551351129e+00,1.518403058135486283e+01,-1.000690433543399038e+01,-5.382522550875606271e+00,-7.530951093188162027e+00,-1.409396393124408320e+01,-5.520544123522920010e+00,-1.454545460712389326e+00,1.272392740176041670e+01,3.408719393188641078e+01,7.983447209911258557e-01,-1.210412370164859697e+00,1.301091126671609421e+00,3.517480648305429725e+00,-6.650808514232219970e+00,-6.752178259262121784e+00,-4.093839714830362020e+00,-8.450996194708670473e+00,1.316949696288477911e+00,-3.718789057760022843e+01,2.613846991592950531e+00,-3.844817150118389204e+00,-3.038400181723486693e+00,-3.148752864815818953e+01
4.307808980445917868e+00,2.284689550597191143e+00,1.775623644341660423e+01,1.768274212043618121e+00,-6.739141872966768254e+00,3.020546344397890604e+00,7.819909992526141274e+00,1.810333951459682122e+00,4.565962680464503265e+00,9.799277700924654555e-01,9.356009876090492838e+00,3.530660337805329174e+00,2.502822411354378218e+00,2.100502165030094126e+00,-1.420209420542904721e-01,2.143985301345193051e+00,1.666196709817142185e+00,2.525395011273785961e+00,-2.504759380716487183e+00,4.820096878439269261e+00,-2.056963954509009262e+00,-5.943953872622496082e-01,6.675352490697988195e+00,3.543235574779826091e-01,-1.673824748924637973e+01
-3.748401588675167595e+00,1.419040146892696796e+01,3.329077033159099130e+01,-1.500241928483432829e+01,-5.226070288165769462e+00,-3.852660285194323686e-01,-1.219889111274761850e+00,4.805416221404843036e+00,7.230575935877385341e+00,1.193505829645013705e+01,2.180960865779592694e+01,5.021068094412835414e+00,-4.163529097315028515e+00,-8.673707738579695459e+00,4.326908257605997399e+00,-5.597637224434232728e+00,-1.704228985162009824e+00,-5.093045468394022279e+00,-4.621141056582235507e+00,8.894836983466323233e+00,-3.006226845591504571e+01,5.261909385071706913e-01,-9.813591854636003475e+00,4.291084235313609163e+00,-3.120928470566989077e+01
5.979823095258486987e+00,-8.456858046588807909e+00,1.937628007349862358e+01,7.089594151681081868e+00,-6.573699555800745387e+00,9.064712161071724950e+00,2.586348730730485102e+01,4.397981002361514236e+00,3.531857471531727466e+00,-4.335564073992157930e+00,1.788437165087741931e+01,1.737239550619301465e+00,5.817331782079126157e+00,-7.657282657242370227e+00,3.432713246375090677e+00,2.268265079328704026e+00,7.376321288823323163e-01,1.757926866242237374e+00,-5.009232260546395699e-01,1.262097323337507149e+01,1.579056188445894549e+01,4.195957028360729701e+00,7.045980140890211629e+00,4.615956381981410672e+00,-1.838964966931741429e+01
8.636395902141197567e+00,-9.042431486795319273e+00,2.078297344091354137e+00,1.394957224266570606e+01,-4.153178148681933024e+00,4.153294974738533263e+00,2.228212760357674682e+01,5.840660046524228655e+00,4.271722380663417695e+00,-8.567912125883481167e+00,9.088387810781549447e+00,4.170909806502984374e+00,9.592141325020740794e+00,2.744691126933307856e+00,-4.452741268261909191e+00,3.576285061962364065e+00,-1.732442505018876588e-01,1.927591276554737387e+00,-6.122144298066231061e-01,7.899843073974649243e+00,2.269855736835576110e+01,7.276694198644487521e+00,1.197554183814984796e+01,1.068123812464033229e+01,-1.324596393513765413e+01
2.765504938125073586e+00,-8.334207087519796886e+00,3.890623697364927747e+00,2.065934615197403446e+01,-1.949426122601506162e+00,7.238120726173161934e+00,2.078296615899172650e+01,3.841153344660944491e+00,8.578912537189905763e+00,-1.855691980985861989e+01,1.725380899513103472e+01,-4.747994888691138726e+00,5.473690038362629906e+00,-3.753243536137497172e-01,-2.759031147260979200e+00,3.038987554115367140e-01,8.635047002415584538e-01,2.332928854557887011e+00,-1.398910288156234083e+00,6.721049708311467974e+00,2.073829640397864083e+01,5.074225549354435927e+00,2.169869959471528276e+01,6.830034499615892152e+00,-1.914942918205735012e+01
2.016217993478805148e+00,5.933320219239789139e+00,1.589205539488439989e+01,2.452557121990696487e+01,-3.617433143803370776e-01,4.772405450913632351e-03,1.441253210206948854e+00,1.260450266886107151e+01,1.762989956848478101e+01,-2.251184985540763250e+01,2.221455265112652899e+00,-1.593088991975032265e+01,1.930359597707573815e+00,-6.795863975413188207e+00,-4.297242435583660480e+00,-2.457066175167318178e+00,-3.405416229048523924e+00,3.653489871953719881e+00,-1.088879093195458614e+00,1.290739510038210014e+01,1.186151385298926897e+01,5.838101214406981043e+00,2.467593157310616192e+01,1.045618232485552035e+01,-1.798131809578835671e+01
7.401118939375747052e-01,-4.656227629361788800e+00,-1.481870008239891234e+01,1.640852038585041228e+01,1.998269100255678277e+00,-4.129950832077103229e+00,1.049428113671106466e+01,4.995848199126301736e+00,5.021354958645908084e+00,-2.380698921754153830e+01,2.855444071554146923e+00,-1.565035766035316200e+01,5.569322306406412793e+00,-1.310665724037587765e+01,-6.920629230758904571e-01,-6.141934748395230237e+00,-6.477991081129244932e+00,4.964260297535212363e-01,-5.600549698908635854e+00,5.739965854313599181e+00,2.210865439865154514e+01,6.034510040650808982e+00,1.530698787863007304e+01,8.655983506720387410e+00,-6.338574618551098716e+00
-1.207054236708847306e+01,1.515547746769800952e+01,-5.694139139796814675e+01,-2.323020436161610647e+01,1.832684721347631296e+01,-2.109975744580444612e+01,2.092850540848499463e+01,-3.327886523009529185e+01,-3.557907024592570799e+00,6.450751524589859009e+00,1.143365060830205948e+01,-1.802085436921106165e+01,-2.485249829043615577e+01,-2.534992642350709602e+01,-3.479835809830001403e-01,-2.715621511739286120e+01,-2.048116772598817192e+01,-1.946484784335086005e+01,-9.593954966482151292e+00,1.370350040686565585e+01,3.050723201285293484e+01,4.361717310732905695e+00,-2.746079633408455223e+01,-1.143357751923892529e+01,1.376427187619310644e+01
-1.412077450943807300e+01,1.380372839918489625e+01,-3.880401370919521753e+01,-3.502812545786402887e-01,2.417682438027293657e+01,-1.043910661031804921e+01,-8.885659860674726573e+00,-1.038449566198821650e+01,-7.771051319671958169e+00,-3.048460833368162870e+00,3.502071100228133282e+00,1.340621694667851216e+01,-7.765587331891984135e+00,-1.440864220796133388e+01,-1.024308188436770273e+01,-1.051843278078109556e+01,-5.029290986571247402e+00,-7.544673288483471296e+00,-8.709494175011467831e+00,-2.898502574833332179e+00,-2.453055870586828391e+00,-1.834314238879344305e+00,-5.046545880898198888e+00,-3.453593135183797624e+00,4.587877801097144825e+00
-1.991871940503023808e+01,1.361040842905086556e+01,-4.699202366654894547e+01,-6.641174885080311507e-02,1.747476073844910971e+01,-1.792694254083808758e+01,-1.660038841107105156e+01,-1.318203305298893824e+01,-8.693032727891928602e+00,3.116469833952019708e-01,8.799787045519117612e+00,-5.699691162025364299e+00,-1.638466009299301618e+01,-1.775045797292121463e+01,-7.070006921415898482e+00,-1.948441530176313208e+01,-1.445694628998612785e+01,-1.295214055409401155e+01,-9.437609736224647605e+00,-5.775129526856900286e-01,-5.443592605604794521e+00,-2.953183255273041929e+00,-6.996061382728836264e+00,-1.411276516641109779e+01,-7.925275307977623918e+00
-2.133869744060475071e+01,6.267906142925660617e+00,-2.506357352527479776e+01,-1.254408681634162548e+01,5.556289634435125357e+00,-8.315173667770604737e+00,-8.001178223957648328e+00,-8.040908645386119602e+00,-1.921333849692599349e+00,1.248995356953981961e+01,4.510912428980617506e+00,3.047278786914755955e+00,-9.372804863375572282e+00,-3.624791618382157132e+00,-1.080105567881454220e+01,-1.099148102602939581e+01,-1.136931051019607608e+01,-5.488300089769655443e+00,-3.469374482660760428e+00,-1.869223411193553952e+00,-1.087416565340037522e+01,-2.302512940413253273e-01,-1.277257300066274048e+01,-1.643142745193020460e+01,-5.043920805695593756e+00
-1.116185039320322581e+01,2.520792227697009391e+00,-2.238894691134303017e+01,-5.714217906506734224e+00,4.564928508587766665e+00,-6.455039735545944346e+00,-4.251994320152689966e+00,-5.878840489755043031e+00,-2.278608864975676163e+00,7.665138422376729821e+00,1.117902357016150816e+00,4.510422991309211760e+00,-4.388625399003985628e+00,-3.728789543333507428e+00,-4.247367848541221846e+00,-6.655658721480410378e+00,-6.866935995326286957e+00,-6.974072104441863651e+00,-1.216471906625550492e+00,-6.382670920002257553e+00,-5.962620575840254844e+00,6.275203252079362137e-01,-1.101478666919145510e+01,-1.130672973104505097e+01,-2.574902047603903288e+00
-8.482352150426523352e+00,3.499088073745058924e+00,-5.934384120042906829e+00,-8.134060590044443373e+00,5.422600308114185197e-02,-2.822673351420907029e+00,-1.243054293685227130e+00,-4.791750617692443370e+00,5.345236640573614473e+00,6.097650223655076474e+00,7.877653489746966109e+00,-1.047197994478046512e+00,-1.214818598972016161e+00,-6.418440073676925373e+00,-6.371559811006290985e-01,-3.394954068941963943e+00,-6.071711165282954958e+00,-5.234859564861119807e+00,-3.718209805609919982e+00,2.859657371486088007e+00,-8.143740589508874805e+00,3.015716043606797570e+00,-4.824766311007508968e+00,-6.129038958374969148e+00,-1.249208061811964221e+01
-1.041543333904332158e+01,3.243189022165109403e+00,-5.168023527019057539e+00,-3.278604888880870316e+00,-2.385226816555315654e+00,-1.020467720013436219e+00,2.708170966874174024e+00,-2.638257195198019378e+00,4.500895876011860253e+00,5.988694013109417291e+00,5.202227621349400088e+00,-6.911015732831982117e-01,-6.920098636769819178e-01,-3.396680923749643810e+00,-2.875063153846742825e+00,-3.319698632106239611e+00,-3.514974578837159580e+00,-3.840110728165702092e+00,-2.558725244177218805e+00,4.671174258578599137e+00,-2.764456486129772905e+00,1.271876456663010524e+00,-9.614331979353848423e-01,-7.241472375810112716e+00,-1.020204709975911861e+01
3.052741557621331925e+00,1.794574474404650788e+00,1.264560649285765415e+01,-3.246468098482235387e+00,-8.379137469745531197e-01,1.017774917456324868e+00,-5.703658058285308918e+00,7.313550288166520197e+00,2.284626238861538372e+00,3.640532697272868212e+00,-3.853354121730406145e+00,-3.255838531692293092e+00,-5.359421892298840140e-01,-6.333971094366878773e+00,1.000476638480381020e+01,1.390943073478016379e+00,4.391773503788247712e-01,1.385890274766209407e+00,1.377415871352525079e+00,1.932403389201907240e+00,-1.319369992688931958e+01,1.092908178154756715e+00,-2.064026675661057908e+00,2.491249121147055323e+00,-3.904729797485368081e+00
1.483818599239482694e+01,3.164624012819924115e+00,2.010791928542065676e+00,-3.540123664353813648e+00,-5.597653369859916239e+00,-3.982466624373468989e+00,-2.028156086970820127e+01,6.091333578190928577e+00,-5.494653135354869100e+00,3.824398380266860187e+00,4.483398631954095492e+00,-1.122079807345427405e+01,3.386095180877285227e+00,-1.168913320894887953e+01,2.032484828608698635e+01,1.734042203799521342e+00,1.729573710803193620e+01,-7.770690789838828216e+00,-6.277494157452841783e+00,7.545319891169077309e+00,-2.712964513857785320e+01,-1.118443892069621093e+01,1.582092695444425345e+01,1.577516416541806521e+01,-9.307419262487398370e+00
-4.535867906403161953e+00,5.766404923735852783e+00,2.042819491756746686e+01,-2.446123047524182326e+01,-7.480714371484170400e+00,-4.318710241954740958e+00,3.571827120181014781e+00,1.580662572527245402e+00,-5.594473003734781180e+00,1.319024768413818105e+00,1.480687172977399513e+01,-5.996775629630232807e+00,-5.877366132542404920e+00,-1.835519296989732396e+01,6.162786389265713094e-01,-6.812988339102346913e+00,2.789921048208950705e+00,-5.459131090489226068e+00,-1.609094528764441279e+01,1.132786623066546916e+01,-2.181059081771973851e+01,-2.893255283935641575e+00,-3.746479059889256558e+00,4.111026990400070247e+00,-1.235550889773164407e+01
-3.001007113062994236e+01,7.671420717768801190e+00,3.859458212302770974e+00,-1.357352984835175391e+01,-2.099143473377163360e+01,-1.869447172430919180e+00,9.096318896607208160e+00,-7.854796495462417205e+00,4.536939072195464995e+00,1.680183790348807094e+01,2.573357827670289311e+01,2.010533191255819752e+00,-9.341550537721516889e+00,-3.887764083809604365e+00,-1.499545066881047717e+01,-9.592654324616358252e+00,-3.228334458892841763e+00,-4.778113167212362455e+00,-3.391946840967198540e+01,2.110434360243339214e+01,-2.295873125325529429e+01,-2.832577254368727537e+00,2.680867812382772541e+01,-1.013150174677974391e+01,-4.211450172725966468e+01
-2.370577823510700100e+01,1.760939413712047852e+01,1.300045725205765734e+01,-2.032950878590904509e+01,-1.316005089394014149e+01,-3.668661587549566505e+00,-3.354655239987786253e+00,-5.912330486245003236e+00,5.832435176986564329e+00,2.080350278019357191e+01,2.921526826437241198e+01,2.104035820392219147e+00,-7.971205406621940881e+00,-6.183999310607634747e+00,-9.007645823618815939e+00,-1.158138612058113104e+01,-1.512816717330911720e+00,-8.529503602034878895e+00,-1.993599921230358873e+01,1.275469606197608918e+01,-4.160388791722458279e+01,-2.685073417084385738e+00,5.782181393443346806e+00,-8.781821787922970302e+00,-3.825014329849687300e+01
-1.934151208980503800e-01,-3.457237727701069074e-01,2.007627791345150570e+01,5.326071455324630222e+00,-1.046407304027984075e+01,7.439316326020613879e+00,7.307022786278636772e+00,3.584094933627744339e+00,1.124478674540653866e+00,4.117809256733882428e+00,1.890721445121219801e+01,5.269805590104503779e-01,6.500833145151644565e+00,4.012575936421028722e+00,5.773247913249880625e+00,4.111370810590630143e+00,1.223141778596895657e+00,2.497320301598445536e+00,-5.731764497330122943e+00,5.840771564898304957e-01,-1.027893479904174789e+01,-2.696696186968794984e-01,1.310107242328202659e+01,-1.180181891203754496e+00,-2.342449907970022593e+01
-7.857646149931616364e-01,3.921036851147511548e+00,2.575398231695374562e+01,-7.869433324821549114e+00,-9.346378986658448795e+00,1.509522952404642071e+00,-1.655484426113308816e+00,7.535897498669368311e+00,6.141980590071800528e+00,9.191554441051994928e+00,1.374265752733939827e+01,-2.393948766128154659e+00,-8.776122474900627246e-01,-1.053788188216591948e+01,8.702283500650661807e+00,-1.843174273429882604e+00,6.283338630846194706e-01,-1.459096641053401422e+00,-4.493829777529599667e+00,6.788840674452736756e+00,-2.571021594141014432e+01,3.600813616402557815e-01,-3.876039593567625063e-01,-1.592209848469974043e+00,-3.381339267426148609e+01
-4.654008461281467390e+00,7.731379107153635299e-01,1.859203178544564139e+01,-1.474279462422743547e+00,-5.202867467506256283e+00,-2.459816497955628900e-01,9.214395750973233490e+00,4.925159581476575177e+00,-6.440048599082517367e-01,3.261942686575818762e+00,2.232130314303263674e+01,3.621803041484077390e+00,3.157830056449832501e+00,-5.663099884734879907e+00,2.869023553292082696e-01,-4.127689884116162666e+00,-1.962915202348827437e+00,-1.683727143922549629e+00,-5.736343574002104262e+00,1.168637583920731338e+01,-5.439730824891728211e+00,4.293025937742234177e+00,6.775567790305392357e-01,5.882961089323643478e+00,-2.616473616055483475e+01
1.461406489231709127e+00,-1.853816152897638458e+00,4.987817541439621749e+00,-3.804517308003637410e+00,6.153804943109542069e-01,2.440502610371860559e+00,1.527081397298390897e+01,-1.351198760075023708e+00,-5.109474171282915034e-01,-3.555190963587200770e+00,2.539579623137309383e+01,-2.105699766374250492e-01,4.596601389652636094e+00,9.348547606302123891e-02,3.694203040016741380e-01,5.866580007422447229e-01,-1.180192716619424154e+00,1.758246840104452091e-01,2.214511650351274952e+00,6.990956415807404234e+00,-1.163892614595172237e+00,4.901286891893741782e+00,1.023211903413767887e+00,6.123634636944213838e+00,-1.444904770282349382e+01
1.010061166139865563e+01,-1.133810668837402602e+01,5.996758469698056926e-01,1.615891040224506980e+01,-1.006983402255873017e+01,1.122704536863425950e+01,2.698725981873059965e+01,-3.010512443404761207e+00,4.167344106714453211e+00,-9.375618268169910507e+00,1.795783350692511959e+01,1.330781228539194005e+00,1.492646921793386916e+01,3.988860514334759966e+00,-1.882358305908742535e+00,8.483679256935623414e+00,5.189698181141109146e+00,1.833920829766029437e+00,5.554918548859733463e+00,7.093435813726890693e+00,2.244135815780190413e+01,6.632827042141991924e+00,1.350342694189614257e+01,4.015607726028373570e+00,-2.115260941602974754e+01
5.361667925258713829e+00,1.606317782495978008e+00,-9.175108690635838116e+00,-3.246519969918920889e+00,-2.937351201781941423e+00,-1.216583989040098013e+00,-3.894089754187384678e+00,-4.788374534416355743e+00,7.598429686240681491e+00,1.883114090355153314e+00,1.236968272638698885e+01,-5.588153271023805324e+00,8.339100627936653964e+00,8.922415505105849576e-01,2.775855407957124044e+00,5.756519971452985635e-03,1.732147738542858528e+00,-3.963862034124878253e+00,4.912727442092996277e+00,5.815766067962414354e+00,-5.793852738732384822e+00,5.208222648058379534e+00,-2.727130726810675032e+00,2.317781889573859111e+00,-1.581126467185932150e+01
5.629054342646014675e+00,6.603358581317332110e+00,1.728163854094980323e+01,2.249104871946755679e+01,-1.824599739718734126e-01,6.432394567855819645e+00,-3.531512783553933943e+00,4.942445725744671670e+00,2.896474560805081566e+01,-1.669568678504896297e+01,-2.394412036830452506e-01,-1.890653381476949946e+01,2.911131701010587047e+00,-7.803165491734644910e+00,1.266511224826313287e+00,5.480492606769965525e-01,-1.652934623582614782e+00,-7.576176217599340790e-01,7.313426038334807977e+00,3.454438094013722704e+00,-1.485010730277989965e-01,1.642485830517381729e+00,1.909826911371342817e+01,3.612946247396724875e+00,-2.160081133187103575e+01
1.084313632328433474e+00,1.132725919488972721e+01,-5.041898357823514587e+00,6.534562198842308156e+00,1.196239116563677207e+00,-1.651867759521073342e+00,-8.157760130420394162e+00,2.146851172411227138e-01,1.942161259545684260e+01,-5.954455584002865010e+00,4.377830357436431008e+00,-1.682479337369506922e+01,6.496504226747987332e+00,-4.791362678332391489e+00,1.389232018092448007e+00,-4.576931365915259065e+00,-2.005477867012666948e+00,5.112977244749329353e-01,2.833350460193649223e+00,8.333473426739516077e-01,-4.764370934255486745e+00,6.199253472312625135e+00,5.519637297876190729e+00,4.047221293632761174e+00,-1.591121258771372915e+01
-3.524944161936240761e+01,2.708039442358991522e+01,-5.115094263423469556e+01,-9.825703068869707790e-01,5.957523046983840054e+00,-2.075676787464653117e+01,1.954016454671148395e+01,-3.027886549864336274e+01,1.074596124815677811e+01,6.483255618348130689e+00,2.870361638312517272e+01,-1.998893895999616532e+01,-3.155470984041861726e+01,-2.224736634899020160e+01,-1.332613610937020354e+01,-3.282300370871872275e+01,-2.581588828178028550e+01,-2.569901515407252646e+01,-1.913125309063038060e+01,2.681331691844696152e+01,2.612275024987225081e+01,-2.908839854044492856e+00,1.799657212066012946e+01,-2.174234436340037746e+01,-2.529549877155185555e+01
-2.691698688101756787e+01,1.392742128782271749e+01,-3.994609436613969677e+01,-4.002846148572279716e+00,2.262186632069187198e+01,-9.737448916868249427e+00,3.480994609292858311e+00,-1.552353078810616260e+01,-7.716876511359136437e+00,6.998171242064660014e+00,-6.134085723177198801e+00,3.434682248445584207e+01,-1.129128627559848930e+01,-1.008618607775049369e+01,-2.939556297786308292e+01,-9.527470005159285549e+00,-5.866353379850330896e+00,-6.408862047464879197e+00,-1.343385630532726438e+01,-3.103252852908091164e+00,-7.790480860904251514e+00,-4.962618631433270977e+00,-5.582262216576062919e+00,-1.384809473832909532e+01,-2.840236957495280823e+00
-2.418891210837337269e+01,7.847283525360407630e+00,-5.980283012369783791e+01,5.197975225418032252e+00,1.418141981514891370e+01,-1.795146394053370997e+01,-1.679959720852539462e+01,-1.848019595758962197e+01,-3.436099685219208943e+00,1.149580748490300897e+00,-4.575689598715389828e+00,-1.634836840024708948e+01,-1.889541796741278645e+01,-4.809389437930292388e+00,-4.519168600664817959e+00,-1.672333256591372930e+01,-2.249148815170614668e+01,-8.279365084942522657e+00,-3.442453512455344811e+00,-6.834985144908154453e+00,1.084551551411710868e+01,-1.385888101846209919e+00,-2.280225549443940292e+00,-2.398520191995830686e+01,4.743027289318197504e+00
-2.030925228026046980e+01,1.098373902593375107e+01,-2.782763042773611417e+01,-1.938448691893664844e+01,8.367888389475693245e+00,-9.521897505401383910e+00,-8.921144863591878860e+00,-1.225395517004365331e+01,7.609163512165941778e-01,1.469659249796741918e+01,1.272271874748166454e+01,4.724620957189172188e+00,-8.843575989674272719e+00,-3.701973875664266167e+00,-1.135124459800670849e+01,-1.089127895403516533e+01,-1.341752066174095148e+01,-6.234153868394008313e+00,-4.811542064985554035e+00,2.966964690285200934e+00,-1.959673254302080991e+01,-2.756133128933809830e-04,-1.479680523664002223e+01,-1.536345079402156699e+01,-6.956059659606574463e+00
-1.190301575052604655e+01,4.209881857159826879e+00,-1.806048077948877406e+01,-5.419972580917583826e+00,1.240232383049637122e+01,-7.691657884422706815e-01,7.007410447715098911e+00,-7.049751573433720608e+00,-1.193735145983237794e-01,5.161120713348015698e+00,-7.734300914725621645e+00,7.209143227105400342e+00,-5.991520910002657629e+00,-9.245473368274507164e-01,-5.422555635104180816e+00,-2.221752433346115829e+00,-6.627941768582886084e+00,-2.835783906509273589e+00,-3.461317155600281414e-01,-2.436834699963169815e+00,3.406832304378282661e+00,1.608851596297751763e-01,-1.110062315421050094e+01,-1.125266169047005249e+01,9.791877761868889252e+00
-6.018612897345724022e+00,6.204904137760139271e+00,-8.643783065326221760e+00,-1.037751649441211477e+01,2.534630732653870844e+00,-2.609415120209145567e+00,-8.685450905809586786e+00,2.196084412144291953e+00,-7.547486275078650886e-01,6.940653220044446847e+00,2.841728161920189955e+00,-6.956891816731961775e+00,-3.731720162326231716e+00,-6.837350490776653800e+00,6.201777225242945057e+00,-3.969906831394987012e+00,-3.744360454642457370e+00,-8.180617320771739476e-02,9.980874196580158397e-01,4.212432846615093318e+00,-1.242230210234747467e+01,1.851171067496336364e-01,-8.688628674166825050e+00,-2.510927388728203535e+00,9.142904497271550079e-01
3.119588981080409607e+00,1.134050285940993552e+00,-1.662402534798402343e+01,-5.736011927441840186e+00,8.400293364637732907e+00,-3.898328188952261186e+00,-7.089790272501341306e+00,-3.622928444541981818e+00,-3.953941483710972093e+00,-9.931353104078334271e-01,-2.667861657327487812e+00,-3.569104038396993861e+00,-1.452293761231654656e+00,-5.014671136655733719e+00,7.278367796427011704e+00,-6.008143672849403094e-01,3.175958082801420557e-01,-2.737181849489953578e+00,4.209927333594897902e+00,-2.319400812091163555e+00,3.688014995111095762e-01,-1.264460158042707727e+00,-4.025187461719639259e+00,-1.781959762089617039e+00,1.293389540087935607e+01
-4.968137401871139502e+00,7.988272456143593381e+00,-2.468152887472031409e+01,-1.460874805077929750e+01,8.421852695008487544e+00,-1.655557774634343460e+01,-2.690931211082463648e+01,-8.310702144734907648e+00,-1.421651722735275847e+01,6.478634188365690605e+00,-4.702185445626825416e-02,-1.385740951138776289e+01,-8.612098157562639855e+00,-1.419304576965880393e+01,1.856831465168995976e+01,-1.103586482280763548e+01,-4.984651683543458667e+00,-9.910763032146919116e+00,1.389001978256662606e-01,-6.089754867770388103e+00,-1.779612011577563990e+01,-3.603196967636442594e+00,-2.014671174883668314e+01,-4.580293333760882213e+00,1.344697304301278784e+01
4.063948723649693839e+00,5.028650024893352111e+00,-2.641221394648343690e+01,-8.111393824431001320e+00,4.905898223085137233e-01,-8.393035648793174985e+00,-2.876864676621336869e+01,-1.019021855098572349e+00,-9.109490684137336203e+00,6.021911224670885687e+00,-5.453123974915608407e+00,-1.895187479519926299e+01,-3.229890560175164627e+00,-9.021732927711845207e+00,2.289732822587120253e+01,-1.794869322518846122e+00,4.643167879107970464e+00,-7.182004298823515320e+00,-6.796751452266684979e-01,-4.215532446249242504e+00,-1.908621184150143435e+01,-9.152604812881996565e+00,3.921032289093659529e+00,2.365781361855307630e+00,1.342086505445418254e+01
-1.199641422299502302e+01,5.866781684732174540e+00,1.141939602583141644e+00,-3.432039262567344906e+01,8.588493088930622410e-02,-4.923836270058560949e+00,-8.637077259559143627e+00,7.004913167599120527e-01,-5.809133603951580405e+00,3.859469977804982577e+00,2.077413329371851969e+00,-9.672322370100589595e+00,-1.048429583605474669e+01,-1.649036057117131904e+01,-6.346916765823061857e-01,-8.341184167677315742e+00,-1.905748888166679977e+00,-4.491300501164496417e+00,-1.460821066541846314e+01,2.734248118868894739e+00,-3.666818684184386257e+01,-2.938133934086426091e+00,-1.156991604046841537e+01,-2.305661932689831328e+00,-9.710850232889944866e-01
-3.264582291931775870e+01,1.564758233293107459e+01,2.204942502787522685e+00,-1.995012662931290137e+01,-3.955491027711604879e+00,-9.704057041565272712e+00,3.495195492537570559e+00,-5.825849191761427903e+00,-1.697791317018702562e-01,1.375859904721300353e+01,2.972414070977457001e+01,1.614568866025543281e+00,-1.229344764854282346e+01,-9.308445247677411771e+00,-1.713572456523107235e+01,-1.425249266635130851e+01,-1.032015659393006501e+01,-7.490290968858101195e+00,-2.929359033192685047e+01,1.953218200542537986e+01,-2.412408243472984637e+01,7.183265876280073847e-01,5.420081297169565104e+00,-1.950144662154965625e+00,-2.096477794332529498e+01
-1.305756810230132281e+01,5.735754577276254373e+00,1.464470269966315996e+01,-4.047700040724032000e+00,-1.251278907836762500e+01,3.290078468445861493e+00,-1.328113930580514079e+00,2.745058279591940487e+00,5.967916267291980326e+00,1.239150907484411945e+01,8.151162898299379123e+00,-5.553724115678541295e+00,-5.300601618430564876e+00,-3.342229555300337385e+00,4.004989318065272030e+00,2.590813499536530617e-01,-6.785917201764543272e+00,-1.043369952915631726e+00,-7.794317667002713002e+00,3.774577100289085330e+00,-1.713020925030291153e+01,-9.642516272212872108e-01,5.463457249750971911e+00,-1.519944059926829283e+01,-2.136019474192635315e+01
-7.556785046135730433e+00,2.452327664936965412e+00,1.012361309680202304e+01,-1.301478743714106656e+00,-1.284090567991044374e+01,2.865672363213574769e+00,-2.476134542408488848e+00,2.462468887618847191e+00,1.933219838002288693e+00,9.624764534572639363e+00,8.308700325139847465e+00,-4.771093083510889343e+00,-2.822562377460957617e+00,2.054538806061347866e+00,9.175033712009861731e+00,2.902168688565520682e+00,-2.416190984576490397e+00,-8.137046125050746703e-02,-2.933134718415603359e+00,2.681365426951228592e+00,-2.193616050919406746e+01,-2.761800476653117009e+00,8.303988196925326193e+00,-5.515049264229187287e+00,-1.590127243385285993e+01
-9.586401729864235222e+00,1.215770130136314009e+01,7.559283722781616532e+00,-1.638113218263995208e+01,3.054169649140829002e+00,-5.476154012195423526e+00,-7.498503611704478544e+00,-1.658131924279672820e+00,1.623206784087779242e-01,1.133255043220166591e+01,2.116384204003006886e+01,-1.580403988704287110e+00,-4.434154792003123902e+00,-6.481232993504118411e+00,3.076012767179603369e+00,-7.642336916606006447e+00,-3.259003458621593907e+00,-4.669755650423820903e+00,-3.391500251602664218e+00,1.435694281882046042e+01,-1.999377396972899845e+01,1.829852271575296951e+00,-5.655555921521342455e+00,3.859342360105279646e+00,-1.299058627743441363e+01
-5.275376220769367741e+00,6.473668208674408397e+00,-1.257993724660350487e+01,-1.873311560090508010e+01,8.415415008681813802e+00,-1.062954309141756326e+01,-6.573850967358019659e+00,-9.424125147834150340e+00,-5.705769107363865444e+00,5.364031808092131648e+00,2.893276801182894786e+01,-6.634814497355225882e-01,-2.803242655267422112e+00,-1.129581478735082278e+01,5.797577417148003676e+00,-1.090060737019326176e+01,-1.138427008606504032e+00,-9.562427758484020046e+00,-4.037991528759101278e+00,7.891449634183606676e+00,-2.158354677336187422e+01,1.881354641658066429e+00,-1.176004636027452932e+01,5.675610224536701942e+00,-1.220573783504861254e+01
7.534437254035925235e+00,-1.126511809017757670e+01,-6.249885900367178060e+00,5.337974194923128302e+00,-2.730101176325506085e+00,4.273256931292347183e+00,3.325803977329294270e+01,-1.049759015623224379e+00,-2.724186107914988053e+00,-8.105888045559334287e+00,2.455042258025554958e+01,5.962449426608282366e+00,8.614708561332571790e+00,-2.889309511042895906e+00,-1.357367247772861107e+00,1.622367109148470155e+00,1.834343519007864298e+00,-2.658426661066954466e+00,3.164147117191342229e+00,1.778891990097367071e+01,2.583713586848702093e+01,7.308967422636084343e+00,1.115000582289415831e+01,7.348401710899975292e+00,-1.477337679672755577e+01
